902 200
</s> 0.002001 0.002210 -0.001915 -0.001639 0.000683 0.001511 0.000470 0.000106 -0.001802 0.001109 -0.002178 0.000625 -0.000376 -0.000479 -0.001658 -0.000941 0.001290 0.001513 0.001485 0.000799 0.000772 -0.001901 -0.002048 0.002485 0.001901 0.001545 -0.000302 0.002008 -0.000247 0.000367 -0.000075 -0.001492 0.000656 -0.000669 -0.001913 0.002377 0.002190 -0.000548 -0.000113 0.000255 -0.001819 -0.002004 0.002277 0.000032 -0.001291 -0.001521 -0.001538 0.000848 0.000101 0.000666 -0.002107 -0.001904 -0.000065 0.000572 0.001275 -0.001585 0.002040 0.000463 0.000560 -0.000304 0.001493 -0.001144 -0.001049 0.001079 -0.000377 0.000515 0.000902 -0.002044 -0.000992 0.001457 0.002116 0.001966 -0.001523 -0.001054 -0.000455 0.001001 -0.001894 0.001499 0.001394 -0.000799 -0.000776 -0.001119 0.002114 0.001956 -0.000590 0.002107 0.002410 0.000908 0.002491 -0.001556 -0.000766 -0.001054 -0.001454 0.001407 0.000790 0.000212 -0.001097 0.000762 0.001530 0.000097 0.001140 -0.002476 0.002157 0.000240 -0.000916 -0.001042 -0.000374 -0.001468 -0.002185 -0.001419 0.002139 -0.000885 -0.001340 0.001159 -0.000852 0.002378 -0.000802 -0.002294 0.001358 -0.000037 -0.001744 0.000488 0.000721 -0.000241 0.000912 -0.001979 0.000441 0.000908 -0.001505 0.000071 -0.000030 -0.001200 -0.001416 -0.002347 0.000011 0.000076 0.000005 -0.001967 -0.002481 -0.002373 -0.002163 -0.000274 0.000696 0.000592 -0.001591 0.002499 -0.001006 -0.000637 -0.000702 0.002366 -0.001882 0.000581 -0.000668 0.001594 0.000020 0.002135 -0.001410 -0.001303 -0.002096 -0.001833 -0.001600 -0.001557 0.001222 -0.000933 0.001340 0.001845 0.000678 0.001475 0.001238 0.001170 -0.001775 -0.001717 -0.001828 -0.000066 0.002065 -0.001368 -0.001530 -0.002098 0.001653 -0.002089 -0.000290 0.001089 -0.002309 -0.002239 0.000721 0.001762 0.002132 0.001073 0.001581 -0.001564 -0.001820 0.001987 -0.001382 0.000877 0.000287 0.000895 -0.000591 0.000099 -0.000843 -0.000563 
the -0.097387 -0.350247 0.039736 0.296098 -0.196561 -0.002126 0.001722 0.256064 -0.183111 0.451128 -0.268858 0.078730 -0.384996 0.223928 -0.039182 0.010360 -0.146521 0.428977 -0.198384 -0.117900 0.170223 -0.036772 -0.036607 -0.148279 0.117027 -0.128152 -0.265587 0.226369 0.035115 0.150132 0.246759 -0.139329 -0.016218 0.200537 -0.171553 0.005622 0.075444 -0.131143 0.079756 -0.096408 -0.012823 0.179687 0.145975 -0.282255 0.197609 0.070886 -0.265291 0.020443 -0.030470 -0.267921 -0.227136 0.189026 0.205923 -0.149706 -0.116190 -0.139823 -0.200552 0.110223 -0.132636 -0.300296 0.020289 0.254291 0.034551 -0.076947 -0.021250 0.082256 -0.007126 -0.077112 0.103913 -0.022450 -0.184058 0.089254 0.396466 -0.138361 -0.019885 -0.008860 -0.093444 -0.053732 -0.246085 0.089041 0.274397 -0.156197 0.180486 -0.078433 -0.205177 -0.004100 0.082832 -0.043253 0.081227 0.417022 -0.004288 -0.183896 0.160682 -0.091168 -0.039602 0.300576 0.167232 0.044904 0.029849 -0.167141 0.225115 -0.068527 -0.196390 -0.454985 -0.213621 0.250821 0.192330 0.148780 0.310621 0.125678 0.269220 0.142947 -0.209733 -0.140238 -0.048132 -0.032555 0.018245 0.107066 0.097440 -0.050076 0.299248 -0.030862 -0.170475 -0.080868 0.142772 0.140988 0.001613 0.217828 0.104157 0.050240 -0.060940 0.144402 -0.074439 -0.078755 -0.006220 0.110709 0.130021 -0.127163 0.142039 -0.033311 0.000120 -0.094201 -0.247058 0.123426 0.108586 -0.059784 0.029355 0.191911 -0.571374 -0.265636 0.132890 0.051052 -0.177868 -0.000685 -0.060229 -0.182802 -0.161782 0.314249 0.032168 -0.076117 0.050354 -0.115933 -0.090995 0.081528 0.096715 -0.056381 0.075832 -0.204810 0.290794 -0.092808 0.081246 0.067073 -0.102355 -0.164401 -0.284001 0.194954 0.225637 -0.006572 0.059359 -0.473512 0.148629 -0.063879 -0.059379 -0.117341 0.108192 -0.266956 -0.082535 -0.204740 0.265846 -0.223391 0.024810 -0.038841 0.054181 -0.005125 0.032631 0.510611 -0.233552 0.297291 -0.210223 0.130441 
to -0.110145 -0.403189 0.039395 0.338705 -0.223409 0.000742 -0.001186 0.299531 -0.210431 0.517758 -0.308949 0.094923 -0.443508 0.258495 -0.046028 0.014293 -0.174237 0.497243 -0.231613 -0.133949 0.198653 -0.044136 -0.038485 -0.176275 0.138731 -0.155111 -0.310820 0.265002 0.046414 0.169067 0.284244 -0.161156 -0.021849 0.235767 -0.196037 0.009873 0.090253 -0.143690 0.096022 -0.108465 -0.017191 0.204462 0.167549 -0.329779 0.230518 0.077275 -0.305858 0.019235 -0.033418 -0.309604 -0.263380 0.224388 0.242405 -0.170391 -0.138461 -0.163563 -0.231104 0.134323 -0.156972 -0.349762 0.022227 0.298142 0.042639 -0.087577 -0.030309 0.094893 -0.008689 -0.088323 0.121439 -0.026448 -0.208948 0.098122 0.461689 -0.160575 -0.028459 -0.003817 -0.110369 -0.064244 -0.278097 0.108628 0.315558 -0.180293 0.205697 -0.097533 -0.242441 -0.009442 0.096472 -0.049195 0.092554 0.484975 -0.001441 -0.212941 0.186222 -0.104538 -0.047725 0.350913 0.195059 0.051590 0.032003 -0.196454 0.261700 -0.076266 -0.232045 -0.534029 -0.248329 0.289677 0.220317 0.176455 0.361308 0.142337 0.316936 0.164291 -0.242330 -0.160071 -0.052729 -0.040289 0.021336 0.128742 0.107378 -0.053368 0.354856 -0.037454 -0.191589 -0.090748 0.168143 0.166732 -0.001799 0.252914 0.116844 0.060789 -0.065661 0.168451 -0.084171 -0.094450 -0.012081 0.125379 0.154122 -0.145711 0.162023 -0.037986 -0.002075 -0.110558 -0.281403 0.144219 0.125948 -0.065674 0.035224 0.222884 -0.667434 -0.306369 0.149076 0.059989 -0.204232 0.002035 -0.065322 -0.211704 -0.186475 0.358821 0.038891 -0.082845 0.057700 -0.136530 -0.112389 0.098353 0.107566 -0.068509 0.087154 -0.235516 0.338078 -0.106578 0.093885 0.074118 -0.111879 -0.186456 -0.326441 0.227381 0.261084 -0.000556 0.069386 -0.546455 0.169873 -0.075910 -0.066652 -0.129181 0.121406 -0.309489 -0.095837 -0.234007 0.308496 -0.254134 0.035112 -0.042556 0.061453 -0.012555 0.034852 0.591548 -0.271419 0.342142 -0.245728 0.150102 
and -0.074766 -0.283579 0.028005 0.238171 -0.159349 0.001325 -0.001520 0.206484 -0.146798 0.363704 -0.218433 0.066555 -0.313067 0.186030 -0.032166 0.008734 -0.119766 0.349921 -0.163415 -0.094271 0.138950 -0.031568 -0.029323 -0.119437 0.099785 -0.104786 -0.220109 0.186878 0.026409 0.120615 0.202464 -0.109818 -0.015411 0.164036 -0.136474 0.009129 0.061087 -0.102973 0.069393 -0.077138 -0.009061 0.144862 0.116760 -0.228915 0.160380 0.058239 -0.220486 0.013838 -0.020703 -0.217068 -0.183346 0.155968 0.169726 -0.121281 -0.095965 -0.110305 -0.162799 0.093547 -0.109314 -0.246265 0.010736 0.206700 0.028327 -0.067083 -0.020237 0.068139 -0.004902 -0.066197 0.083530 -0.016677 -0.147706 0.072883 0.319147 -0.110203 -0.015533 -0.002170 -0.076987 -0.042323 -0.196972 0.076148 0.217212 -0.129786 0.147519 -0.065869 -0.167232 -0.006741 0.068829 -0.032278 0.069461 0.341602 0.003036 -0.148721 0.126844 -0.076536 -0.035308 0.245617 0.136217 0.039238 0.022175 -0.136105 0.185566 -0.054667 -0.161521 -0.370821 -0.173925 0.202232 0.154386 0.117590 0.254035 0.100045 0.221168 0.110639 -0.167715 -0.109884 -0.039102 -0.028757 0.013838 0.088970 0.076883 -0.040298 0.247868 -0.025067 -0.132408 -0.059845 0.114367 0.116686 0.001584 0.175221 0.084839 0.043687 -0.048903 0.117064 -0.058250 -0.067051 -0.008924 0.090162 0.106773 -0.104191 0.110618 -0.023807 -0.001629 -0.075137 -0.198340 0.095562 0.090034 -0.044154 0.025297 0.158656 -0.467525 -0.212986 0.102872 0.043274 -0.146521 -0.002189 -0.047521 -0.150647 -0.128340 0.249747 0.029609 -0.060686 0.041907 -0.094596 -0.073158 0.065926 0.073900 -0.046586 0.060271 -0.170703 0.238371 -0.075785 0.063903 0.053133 -0.084481 -0.132658 -0.230898 0.158158 0.183121 -0.005735 0.051865 -0.385031 0.118498 -0.053184 -0.043306 -0.093953 0.084881 -0.214402 -0.068297 -0.162130 0.219036 -0.186340 0.019708 -0.028524 0.047015 -0.005094 0.024047 0.410769 -0.192714 0.239842 -0.170250 0.104598 
I -0.078081 -0.297943 0.031863 0.248259 -0.165165 0.001488 0.002724 0.217894 -0.151254 0.381634 -0.232822 0.066307 -0.324240 0.194928 -0.035459 0.007310 -0.126893 0.366654 -0.169559 -0.101831 0.144983 -0.032188 -0.033022 -0.129754 0.100162 -0.112465 -0.231117 0.192362 0.034593 0.128476 0.210422 -0.115831 -0.015946 0.168828 -0.145463 0.007255 0.068728 -0.109594 0.068998 -0.079398 -0.009710 0.151485 0.122653 -0.246376 0.170212 0.057257 -0.227756 0.013214 -0.019377 -0.228503 -0.194953 0.163301 0.181529 -0.129928 -0.104785 -0.120934 -0.168542 0.094597 -0.114927 -0.255513 0.014905 0.224782 0.029493 -0.070036 -0.021090 0.072455 -0.005573 -0.068907 0.086316 -0.017721 -0.153416 0.069597 0.342179 -0.117928 -0.016827 -0.004457 -0.081952 -0.040332 -0.209372 0.079496 0.232538 -0.136388 0.153414 -0.072285 -0.181348 -0.004599 0.072654 -0.032978 0.067741 0.356511 0.000079 -0.164613 0.135750 -0.074683 -0.037949 0.263166 0.150333 0.041504 0.026829 -0.142421 0.194338 -0.063406 -0.166449 -0.391128 -0.183742 0.209852 0.165955 0.131858 0.271220 0.105740 0.227307 0.116606 -0.178780 -0.120270 -0.039950 -0.028992 0.013489 0.089253 0.080969 -0.042806 0.256920 -0.026644 -0.140436 -0.070044 0.123917 0.117488 0.000726 0.187266 0.085937 0.043414 -0.054247 0.124084 -0.058238 -0.069917 -0.006127 0.090746 0.112089 -0.108646 0.117084 -0.028615 -0.002090 -0.081946 -0.211698 0.101812 0.088840 -0.050802 0.025565 0.168447 -0.490409 -0.223645 0.115881 0.042400 -0.155769 -0.003463 -0.050240 -0.155103 -0.135460 0.269284 0.030851 -0.059244 0.042733 -0.102452 -0.076563 0.070587 0.082817 -0.048565 0.064653 -0.178513 0.246278 -0.078935 0.069064 0.047898 -0.089310 -0.138705 -0.240402 0.169858 0.193542 -0.005401 0.058277 -0.400714 0.129212 -0.058131 -0.047686 -0.096028 0.092054 -0.228396 -0.073267 -0.172969 0.223040 -0.187063 0.021360 -0.030601 0.045768 -0.006630 0.023365 0.434112 -0.203835 0.259158 -0.178155 0.110360 
a -0.076257 -0.276385 0.026999 0.228565 -0.152720 0.001639 0.003456 0.202733 -0.141436 0.347100 -0.215922 0.063298 -0.300907 0.174871 -0.033581 0.006335 -0.115414 0.339963 -0.160415 -0.093779 0.134122 -0.032652 -0.032301 -0.118548 0.091422 -0.102341 -0.215980 0.183240 0.029454 0.117399 0.198467 -0.110057 -0.015627 0.160016 -0.134220 0.008013 0.061795 -0.096889 0.067794 -0.073660 -0.007831 0.138765 0.117795 -0.227172 0.153056 0.057927 -0.209902 0.015277 -0.019664 -0.211743 -0.178460 0.150274 0.168418 -0.114651 -0.092648 -0.109769 -0.161070 0.089434 -0.107820 -0.237228 0.013000 0.201638 0.032639 -0.061051 -0.022270 0.066502 -0.007435 -0.059256 0.076186 -0.018237 -0.141333 0.066051 0.313988 -0.108370 -0.017972 -0.002198 -0.078960 -0.038611 -0.192644 0.069761 0.215057 -0.125659 0.141306 -0.067045 -0.163344 -0.007715 0.064345 -0.036207 0.063351 0.329111 0.001991 -0.148026 0.127326 -0.070938 -0.036067 0.240701 0.135488 0.034990 0.025789 -0.130592 0.176003 -0.060572 -0.153970 -0.360924 -0.168686 0.195904 0.154947 0.121328 0.243527 0.098846 0.210600 0.109684 -0.161873 -0.111276 -0.033085 -0.027121 0.010974 0.081841 0.075563 -0.035980 0.239017 -0.028664 -0.132013 -0.064310 0.110974 0.110944 -0.001539 0.169743 0.076752 0.041373 -0.047130 0.113628 -0.057926 -0.064919 -0.005246 0.086765 0.105263 -0.101475 0.110317 -0.021261 -0.001449 -0.072138 -0.196375 0.093841 0.078993 -0.047496 0.020798 0.155743 -0.450450 -0.207842 0.104672 0.038741 -0.139189 -0.005148 -0.046481 -0.136970 -0.125074 0.247784 0.033426 -0.058801 0.044060 -0.094752 -0.072415 0.064394 0.074706 -0.043123 0.057215 -0.165217 0.227778 -0.073637 0.062209 0.045095 -0.081682 -0.125824 -0.225646 0.154222 0.177748 0.002667 0.049193 -0.369520 0.117411 -0.050623 -0.041055 -0.088084 0.083849 -0.210644 -0.065751 -0.164048 0.206578 -0.173364 0.022276 -0.027241 0.040287 -0.005092 0.022469 0.399999 -0.185498 0.239646 -0.163142 0.102159 
The -0.086417 -0.320517 0.035261 0.270765 -0.182082 0.002452 0.001080 0.234189 -0.165803 0.412623 -0.247949 0.078037 -0.350042 0.207229 -0.033016 0.008276 -0.136913 0.394447 -0.184589 -0.110843 0.154890 -0.037219 -0.033783 -0.138323 0.111369 -0.122417 -0.248416 0.212808 0.033491 0.137007 0.228831 -0.128443 -0.013289 0.186305 -0.154995 0.011637 0.068528 -0.119478 0.077627 -0.087916 -0.008392 0.165180 0.135211 -0.263970 0.181916 0.061983 -0.245957 0.015224 -0.026431 -0.249025 -0.206913 0.174013 0.194333 -0.136942 -0.106675 -0.128769 -0.188465 0.101752 -0.122552 -0.278810 0.017291 0.235945 0.036101 -0.070171 -0.019950 0.075011 -0.006590 -0.073150 0.093112 -0.021840 -0.166550 0.083284 0.362861 -0.126652 -0.014711 -0.006228 -0.085709 -0.047795 -0.222827 0.086217 0.250260 -0.144812 0.169493 -0.078971 -0.193274 -0.010408 0.078895 -0.038931 0.076304 0.386219 -0.001734 -0.171905 0.149810 -0.083501 -0.036193 0.277720 0.159491 0.043790 0.030578 -0.153901 0.209545 -0.064647 -0.182952 -0.425034 -0.196374 0.231778 0.177448 0.137478 0.286048 0.113042 0.250682 0.128398 -0.194440 -0.126202 -0.042969 -0.032680 0.014007 0.099009 0.085684 -0.042549 0.277938 -0.031693 -0.152820 -0.075014 0.129803 0.127639 -0.000494 0.200107 0.091045 0.045502 -0.055237 0.134234 -0.069973 -0.075693 -0.007433 0.102612 0.118686 -0.118486 0.130319 -0.030926 0.000291 -0.086117 -0.224848 0.113106 0.097056 -0.055982 0.026846 0.182957 -0.531539 -0.246166 0.117747 0.049533 -0.163592 -0.003423 -0.053512 -0.166486 -0.149478 0.286651 0.034463 -0.069476 0.049297 -0.108452 -0.083274 0.073292 0.087915 -0.052262 0.066113 -0.187625 0.270261 -0.087922 0.076481 0.059428 -0.090581 -0.150273 -0.261886 0.184033 0.209298 -0.001085 0.056669 -0.432293 0.132936 -0.060016 -0.052910 -0.103781 0.098488 -0.247245 -0.078242 -0.185923 0.247386 -0.208664 0.021618 -0.031400 0.052085 -0.010077 0.027621 0.470521 -0.213510 0.273919 -0.191598 0.117949 
you -0.086587 -0.329178 0.034745 0.275021 -0.183368 -0.001630 -0.001256 0.244718 -0.172167 0.417656 -0.254929 0.072148 -0.361802 0.210524 -0.036303 0.010094 -0.139798 0.407702 -0.191018 -0.114432 0.162398 -0.033278 -0.036182 -0.140892 0.109660 -0.120372 -0.255195 0.213685 0.036840 0.138815 0.232722 -0.129638 -0.019365 0.192301 -0.163847 0.006398 0.075771 -0.116666 0.073201 -0.089536 -0.009423 0.167292 0.134997 -0.266802 0.183034 0.067098 -0.252305 0.017017 -0.023614 -0.254659 -0.218909 0.181253 0.194765 -0.141600 -0.114350 -0.131734 -0.186885 0.105898 -0.130628 -0.281245 0.018443 0.244868 0.037611 -0.069708 -0.024967 0.076556 -0.011552 -0.073514 0.097391 -0.024095 -0.170897 0.082176 0.372324 -0.129794 -0.021166 -0.002904 -0.089667 -0.048646 -0.230464 0.088261 0.259625 -0.151905 0.168786 -0.079095 -0.196670 -0.006366 0.078893 -0.040427 0.071056 0.397451 0.002301 -0.178038 0.149494 -0.081521 -0.039549 0.290072 0.163216 0.043745 0.029838 -0.159359 0.209104 -0.065479 -0.182082 -0.433428 -0.201918 0.230297 0.179568 0.145381 0.294013 0.115285 0.252101 0.133491 -0.195637 -0.128501 -0.044651 -0.030402 0.015489 0.103988 0.089368 -0.041779 0.282779 -0.032502 -0.161077 -0.077631 0.132437 0.132961 0.000211 0.205358 0.094499 0.053007 -0.057612 0.139680 -0.067113 -0.074914 -0.007484 0.097903 0.123256 -0.116053 0.132033 -0.029890 -0.001159 -0.088519 -0.228855 0.112639 0.099914 -0.058915 0.026976 0.183409 -0.541451 -0.245119 0.128944 0.050885 -0.164814 -0.002522 -0.054863 -0.171434 -0.156610 0.293632 0.034792 -0.068888 0.049909 -0.108510 -0.089095 0.077751 0.091122 -0.053643 0.069124 -0.194440 0.271234 -0.089488 0.076471 0.053176 -0.092576 -0.156142 -0.267147 0.183847 0.210471 -0.001481 0.058858 -0.440979 0.142671 -0.062982 -0.051291 -0.104234 0.098764 -0.256716 -0.078925 -0.193032 0.250944 -0.205758 0.025287 -0.035182 0.049352 -0.008989 0.024062 0.481183 -0.224578 0.281276 -0.197336 0.123237 
was -0.097734 -0.353647 0.035832 0.296122 -0.198012 -0.000917 0.002596 0.259750 -0.182520 0.450980 -0.270993 0.083195 -0.385446 0.226647 -0.039681 0.006242 -0.150158 0.435495 -0.201255 -0.121073 0.173600 -0.040855 -0.039224 -0.152314 0.119904 -0.133818 -0.275895 0.232874 0.037560 0.151348 0.252984 -0.140006 -0.014937 0.203818 -0.172957 0.008465 0.078326 -0.126365 0.085028 -0.096688 -0.009664 0.180917 0.150477 -0.289921 0.200535 0.072525 -0.270505 0.014295 -0.028786 -0.273948 -0.230421 0.191788 0.215025 -0.152118 -0.121116 -0.138565 -0.201245 0.113573 -0.134848 -0.303008 0.018334 0.255667 0.038716 -0.076431 -0.023950 0.083732 -0.011505 -0.078328 0.099306 -0.023796 -0.185198 0.087436 0.399878 -0.136797 -0.020688 -0.004451 -0.094363 -0.049640 -0.247847 0.090691 0.272454 -0.160499 0.182365 -0.082289 -0.207682 -0.010481 0.085429 -0.045238 0.080809 0.425739 -0.002434 -0.190560 0.160748 -0.093499 -0.044480 0.305317 0.173411 0.043104 0.031249 -0.170963 0.230911 -0.070704 -0.200456 -0.462286 -0.219333 0.250722 0.195635 0.156771 0.317897 0.128487 0.273337 0.143257 -0.212748 -0.141312 -0.043458 -0.034033 0.018659 0.111535 0.095352 -0.049538 0.307175 -0.030890 -0.169225 -0.082878 0.141384 0.141275 0.000855 0.215480 0.103775 0.054579 -0.064601 0.146840 -0.075082 -0.085290 -0.011358 0.109789 0.133142 -0.126748 0.139856 -0.031215 -0.001712 -0.094523 -0.247359 0.124105 0.107362 -0.060164 0.032046 0.197055 -0.583938 -0.266947 0.136448 0.050355 -0.177497 0.000545 -0.058201 -0.185305 -0.161094 0.317601 0.039247 -0.076414 0.056667 -0.116817 -0.094738 0.083332 0.092591 -0.054872 0.074524 -0.210041 0.295993 -0.095838 0.078895 0.062692 -0.102957 -0.165711 -0.286095 0.194406 0.229937 -0.004348 0.064011 -0.472033 0.146718 -0.064929 -0.055254 -0.116862 0.105444 -0.270592 -0.086570 -0.204371 0.268890 -0.226458 0.023743 -0.037014 0.052358 -0.006458 0.027510 0.514803 -0.234450 0.301615 -0.213374 0.130129 
will -0.093052 -0.341631 0.032315 0.284794 -0.190915 0.002468 0.002868 0.253387 -0.174871 0.432425 -0.260962 0.078000 -0.371978 0.214798 -0.040583 0.014146 -0.142190 0.420338 -0.195970 -0.117291 0.166091 -0.034382 -0.035941 -0.147036 0.114312 -0.124802 -0.261949 0.221304 0.037478 0.141463 0.240857 -0.131376 -0.015670 0.198067 -0.166324 0.009695 0.076917 -0.123770 0.078113 -0.091157 -0.007957 0.174168 0.142608 -0.274228 0.191439 0.065566 -0.257714 0.016221 -0.026171 -0.261401 -0.226997 0.184755 0.203451 -0.148813 -0.118857 -0.137378 -0.196451 0.109216 -0.127900 -0.293610 0.014629 0.256395 0.036369 -0.073930 -0.024954 0.083192 -0.007204 -0.077002 0.096441 -0.023899 -0.178386 0.083515 0.381341 -0.134403 -0.015914 -0.003037 -0.094936 -0.047277 -0.239230 0.089296 0.269847 -0.155762 0.172545 -0.082864 -0.201087 -0.007501 0.083618 -0.038176 0.077924 0.406288 0.000612 -0.184498 0.150772 -0.084751 -0.046202 0.300071 0.169152 0.043987 0.026955 -0.163882 0.220529 -0.071384 -0.192885 -0.445580 -0.209622 0.240177 0.190551 0.149008 0.308466 0.117948 0.260343 0.135526 -0.202772 -0.136514 -0.046661 -0.036511 0.018381 0.107794 0.090915 -0.048218 0.292682 -0.031766 -0.160450 -0.076992 0.137715 0.133672 -0.001607 0.210958 0.097479 0.051880 -0.064074 0.142795 -0.072215 -0.080682 -0.008097 0.104375 0.124819 -0.122716 0.133638 -0.031261 -0.006037 -0.089499 -0.237708 0.114970 0.100497 -0.057420 0.029551 0.186406 -0.552140 -0.251669 0.130631 0.050187 -0.172451 0.000463 -0.059859 -0.176498 -0.159253 0.304802 0.039686 -0.070324 0.049756 -0.114500 -0.088552 0.080849 0.094389 -0.055834 0.068098 -0.202428 0.283761 -0.090625 0.078012 0.059561 -0.095960 -0.158915 -0.277892 0.188338 0.219081 -0.002164 0.061897 -0.456133 0.143530 -0.067384 -0.051895 -0.109093 0.100631 -0.259296 -0.080220 -0.196827 0.257925 -0.214073 0.023409 -0.037019 0.047911 -0.009327 0.021256 0.492088 -0.229407 0.294512 -0.203949 0.123026 
he -0.083665 -0.300402 0.033460 0.251121 -0.168693 -0.000416 0.003092 0.220128 -0.155467 0.387906 -0.232473 0.067917 -0.332915 0.193182 -0.033837 0.006423 -0.131094 0.370542 -0.171231 -0.106484 0.148475 -0.032930 -0.031544 -0.128321 0.106111 -0.112798 -0.232048 0.198187 0.034345 0.126031 0.213519 -0.124383 -0.011083 0.177497 -0.149441 0.010129 0.063461 -0.112689 0.070487 -0.086538 -0.007152 0.155122 0.130604 -0.247083 0.170519 0.057791 -0.231125 0.016836 -0.022668 -0.233639 -0.200113 0.162270 0.185267 -0.131045 -0.103603 -0.119201 -0.171787 0.097555 -0.115900 -0.262801 0.014616 0.218024 0.033376 -0.068769 -0.020422 0.073659 -0.007239 -0.069991 0.090209 -0.019264 -0.155651 0.076642 0.340344 -0.114939 -0.015160 -0.007235 -0.077879 -0.046875 -0.212296 0.076318 0.232147 -0.137160 0.155459 -0.073779 -0.181698 -0.008830 0.068966 -0.034510 0.071646 0.359507 0.000066 -0.158248 0.136484 -0.075900 -0.034564 0.260939 0.146024 0.042868 0.023488 -0.145668 0.196416 -0.063059 -0.171752 -0.396491 -0.184314 0.215940 0.169474 0.133154 0.266308 0.110472 0.235893 0.118908 -0.180690 -0.118355 -0.039332 -0.030234 0.015164 0.093900 0.078350 -0.039657 0.263446 -0.029586 -0.145169 -0.073244 0.122061 0.120646 -0.001315 0.184973 0.087510 0.046186 -0.049139 0.123675 -0.061899 -0.071171 -0.008315 0.093412 0.115117 -0.111677 0.120822 -0.024895 -0.000842 -0.083525 -0.213770 0.104010 0.088636 -0.050584 0.027168 0.168580 -0.494750 -0.227185 0.114478 0.043860 -0.156668 -0.001976 -0.052616 -0.155991 -0.137740 0.272331 0.032189 -0.065476 0.042771 -0.099419 -0.079876 0.070152 0.081833 -0.049833 0.061659 -0.179235 0.250682 -0.078577 0.070026 0.057335 -0.084810 -0.138298 -0.245730 0.167785 0.197819 -0.000972 0.055250 -0.405165 0.127503 -0.057037 -0.053439 -0.100311 0.092095 -0.232768 -0.076086 -0.176067 0.229264 -0.193622 0.019910 -0.030925 0.050232 -0.009490 0.025132 0.440485 -0.201671 0.259564 -0.179209 0.111697 
is -0.103024 -0.370635 0.038876 0.313131 -0.209243 0.001959 0.002655 0.271510 -0.187275 0.469467 -0.286446 0.086897 -0.410643 0.239408 -0.046107 0.011944 -0.157049 0.458853 -0.215870 -0.127508 0.181022 -0.043737 -0.041578 -0.162574 0.127791 -0.141314 -0.286889 0.242607 0.040613 0.156151 0.264705 -0.146187 -0.018818 0.211256 -0.178802 0.005750 0.080026 -0.132249 0.085327 -0.098581 -0.013258 0.191529 0.158364 -0.305738 0.209523 0.074086 -0.281609 0.015297 -0.026353 -0.287424 -0.239817 0.200832 0.226380 -0.157873 -0.126964 -0.153079 -0.217356 0.116413 -0.140912 -0.319451 0.019002 0.276644 0.035021 -0.082181 -0.025573 0.090747 -0.008531 -0.085719 0.108824 -0.025048 -0.194875 0.092304 0.418007 -0.147781 -0.018270 -0.003210 -0.104137 -0.051957 -0.262950 0.096317 0.287482 -0.167153 0.187718 -0.090500 -0.222549 -0.008943 0.090786 -0.044524 0.080024 0.446974 -0.000958 -0.198845 0.165277 -0.095034 -0.051824 0.324283 0.181681 0.048113 0.034462 -0.177446 0.239850 -0.077729 -0.209772 -0.488655 -0.231829 0.262410 0.208586 0.166378 0.331114 0.132660 0.286460 0.147468 -0.222598 -0.148040 -0.043252 -0.035141 0.020632 0.111656 0.103077 -0.050020 0.320691 -0.036339 -0.175700 -0.087242 0.151547 0.150268 0.001655 0.229273 0.106880 0.060320 -0.069329 0.154159 -0.078109 -0.087559 -0.010571 0.116284 0.140629 -0.137237 0.148921 -0.035968 -0.003146 -0.105378 -0.261314 0.129176 0.111122 -0.063391 0.031819 0.205764 -0.610377 -0.279317 0.137953 0.057833 -0.187026 -0.001401 -0.064082 -0.193361 -0.171668 0.334575 0.043841 -0.077317 0.056522 -0.127673 -0.101257 0.087326 0.101149 -0.058952 0.076064 -0.215075 0.311283 -0.097458 0.084665 0.065049 -0.105333 -0.170295 -0.303493 0.208554 0.241816 -0.004115 0.067583 -0.495058 0.159201 -0.069817 -0.060280 -0.117400 0.114934 -0.283447 -0.088245 -0.216439 0.279530 -0.236236 0.029341 -0.038410 0.058092 -0.009435 0.026071 0.541954 -0.251552 0.320621 -0.223548 0.136544 
of -0.097354 -0.357810 0.033941 0.300401 -0.198302 0.000573 0.001409 0.264768 -0.186541 0.456280 -0.272978 0.086390 -0.396055 0.230821 -0.035811 0.009764 -0.152753 0.440921 -0.205049 -0.125134 0.175758 -0.038363 -0.034661 -0.155918 0.120430 -0.137190 -0.277765 0.234969 0.042062 0.150964 0.255117 -0.142225 -0.017240 0.210162 -0.175272 0.011498 0.080858 -0.130625 0.085374 -0.099101 -0.012656 0.179975 0.150796 -0.292851 0.202633 0.070315 -0.274705 0.016650 -0.027600 -0.276004 -0.232609 0.192779 0.211483 -0.154394 -0.119503 -0.141650 -0.208423 0.116418 -0.137235 -0.309589 0.015414 0.262321 0.038977 -0.075677 -0.029312 0.088643 -0.014002 -0.078322 0.103996 -0.025770 -0.186477 0.086306 0.406147 -0.145006 -0.023003 -0.003772 -0.098611 -0.054389 -0.247881 0.092959 0.277891 -0.163098 0.183777 -0.085998 -0.214249 -0.009731 0.083741 -0.043431 0.084845 0.429054 -0.002659 -0.188623 0.163062 -0.091748 -0.044218 0.307722 0.173785 0.048913 0.030857 -0.173176 0.233363 -0.070800 -0.200076 -0.472421 -0.220147 0.253231 0.198353 0.158456 0.322491 0.125013 0.278486 0.144153 -0.210270 -0.141614 -0.044060 -0.033369 0.015880 0.111947 0.095061 -0.045720 0.312311 -0.030479 -0.173901 -0.082003 0.145378 0.148363 0.001256 0.223758 0.101419 0.054332 -0.062632 0.148330 -0.072327 -0.082521 -0.009882 0.111761 0.133977 -0.128100 0.142503 -0.033291 -0.004422 -0.097252 -0.252919 0.124800 0.110223 -0.058051 0.027361 0.198606 -0.586911 -0.270306 0.134122 0.052755 -0.180999 -0.002120 -0.061538 -0.184496 -0.165133 0.315851 0.036017 -0.076172 0.056124 -0.122064 -0.096429 0.086769 0.095016 -0.058623 0.074218 -0.211447 0.297028 -0.096239 0.083252 0.065193 -0.102151 -0.167114 -0.288505 0.199487 0.228959 -0.000412 0.066543 -0.480603 0.151292 -0.069688 -0.057029 -0.117154 0.109139 -0.278624 -0.085393 -0.206507 0.274151 -0.224525 0.028051 -0.036582 0.055374 -0.007610 0.028720 0.522377 -0.239407 0.309261 -0.213175 0.130844 
little -0.094098 -0.340682 0.036260 0.289449 -0.194998 -0.000138 0.000918 0.254211 -0.176638 0.437698 -0.266139 0.077495 -0.374842 0.221932 -0.038264 0.010551 -0.144724 0.424174 -0.195571 -0.115865 0.165291 -0.037667 -0.039442 -0.147267 0.117294 -0.128682 -0.265926 0.225215 0.038094 0.144527 0.241463 -0.135050 -0.016838 0.200317 -0.170494 0.009319 0.075778 -0.124968 0.078778 -0.094096 -0.009443 0.170969 0.148297 -0.281045 0.193381 0.070692 -0.262965 0.015347 -0.025909 -0.263907 -0.223560 0.188318 0.207064 -0.150821 -0.117487 -0.138907 -0.199104 0.108043 -0.132642 -0.297546 0.014134 0.252480 0.034676 -0.076202 -0.021957 0.083643 -0.008670 -0.079057 0.103519 -0.026616 -0.179374 0.082657 0.390020 -0.131322 -0.018479 -0.006252 -0.089915 -0.053908 -0.239182 0.091490 0.268118 -0.153769 0.180207 -0.080382 -0.204194 -0.008247 0.081541 -0.040771 0.076805 0.414999 -0.004402 -0.186833 0.156541 -0.087444 -0.041107 0.298354 0.167565 0.047546 0.031193 -0.167507 0.223059 -0.069997 -0.195778 -0.448098 -0.210864 0.246016 0.189498 0.149177 0.305790 0.117168 0.267191 0.138398 -0.207119 -0.136801 -0.043298 -0.034197 0.016424 0.108043 0.094293 -0.046345 0.295411 -0.032207 -0.165849 -0.080898 0.138331 0.137080 0.000385 0.214019 0.101090 0.049966 -0.056400 0.138384 -0.068162 -0.081988 -0.007201 0.105118 0.131227 -0.124601 0.137105 -0.031736 -0.002026 -0.090807 -0.238012 0.118195 0.104051 -0.061847 0.028105 0.188291 -0.562294 -0.256486 0.126501 0.051343 -0.177141 -0.002349 -0.060036 -0.177324 -0.155128 0.305199 0.035158 -0.072256 0.049933 -0.111283 -0.089217 0.082490 0.088242 -0.058498 0.073242 -0.203432 0.287899 -0.089070 0.081834 0.061560 -0.099600 -0.161630 -0.279104 0.190675 0.223065 -0.001760 0.059085 -0.461302 0.146837 -0.066525 -0.055390 -0.111620 0.102782 -0.263599 -0.082296 -0.203561 0.262116 -0.219022 0.026726 -0.037247 0.052522 -0.010648 0.029698 0.499708 -0.230816 0.293830 -0.204469 0.127492 
for -0.077218 -0.305582 0.032845 0.258937 -0.166535 0.001419 -0.003184 0.225124 -0.162123 0.388660 -0.234854 0.073190 -0.337274 0.197246 -0.031189 0.008350 -0.131621 0.376938 -0.179795 -0.105822 0.150167 -0.031669 -0.030106 -0.129933 0.099221 -0.118124 -0.233872 0.202276 0.035790 0.127114 0.219896 -0.123718 -0.019225 0.176794 -0.147099 0.005500 0.068542 -0.108265 0.075580 -0.083797 -0.010691 0.151071 0.130478 -0.251053 0.172752 0.061508 -0.235310 0.018434 -0.024408 -0.237032 -0.198011 0.168924 0.182092 -0.128854 -0.100403 -0.122618 -0.177066 0.097306 -0.121582 -0.264673 0.018210 0.227226 0.030005 -0.062027 -0.024278 0.073568 -0.009649 -0.067122 0.088139 -0.020488 -0.154228 0.074088 0.346067 -0.124122 -0.022195 -0.005895 -0.084827 -0.049577 -0.210681 0.082116 0.246936 -0.136584 0.162279 -0.072913 -0.187081 -0.007213 0.074149 -0.039242 0.067674 0.368964 -0.003181 -0.163002 0.140810 -0.077579 -0.039468 0.261889 0.147184 0.038908 0.029531 -0.147965 0.201956 -0.058806 -0.172350 -0.407037 -0.188694 0.218590 0.169017 0.136062 0.273345 0.109708 0.241536 0.120695 -0.182745 -0.119416 -0.039418 -0.027657 0.017161 0.098281 0.084811 -0.034345 0.271826 -0.028378 -0.147188 -0.068776 0.126934 0.125916 0.000580 0.190765 0.087617 0.046086 -0.049230 0.125404 -0.065937 -0.073454 -0.011637 0.095490 0.115887 -0.113500 0.122925 -0.025872 -0.005631 -0.084600 -0.215134 0.108884 0.094511 -0.053994 0.027664 0.167568 -0.505964 -0.233991 0.114795 0.045550 -0.153765 0.004151 -0.048355 -0.153827 -0.140971 0.269397 0.034063 -0.065580 0.045233 -0.104286 -0.084011 0.071640 0.083423 -0.048344 0.067171 -0.179531 0.249994 -0.083794 0.072744 0.056402 -0.089474 -0.140788 -0.250187 0.172239 0.199694 0.001320 0.053448 -0.412460 0.125855 -0.058387 -0.053105 -0.100385 0.090313 -0.236589 -0.072999 -0.178540 0.234580 -0.191643 0.028524 -0.030343 0.045013 -0.005061 0.027312 0.447269 -0.203386 0.265920 -0.187394 0.114291 
are -0.094636 -0.361684 0.039025 0.305248 -0.202975 -0.002212 0.001822 0.269545 -0.187121 0.460241 -0.277898 0.084688 -0.399769 0.232885 -0.042135 0.009791 -0.156970 0.445441 -0.209628 -0.123342 0.178105 -0.041950 -0.039387 -0.152775 0.121036 -0.137872 -0.278993 0.241171 0.037600 0.150173 0.254419 -0.146272 -0.015231 0.212252 -0.177311 0.008167 0.081797 -0.130002 0.087824 -0.098657 -0.013683 0.181821 0.151377 -0.293148 0.203371 0.074797 -0.280215 0.019860 -0.026808 -0.279408 -0.236157 0.198920 0.215309 -0.155368 -0.124573 -0.145787 -0.210759 0.118585 -0.143060 -0.310475 0.019695 0.270569 0.038327 -0.077189 -0.023858 0.083920 -0.012665 -0.080827 0.104641 -0.024182 -0.189047 0.087538 0.408172 -0.142372 -0.024882 -0.008901 -0.098693 -0.056100 -0.254688 0.096311 0.284771 -0.159719 0.188489 -0.087592 -0.218546 -0.010521 0.086762 -0.042903 0.082123 0.433554 0.000857 -0.190485 0.167898 -0.093554 -0.043890 0.314710 0.175596 0.043124 0.035204 -0.174762 0.237236 -0.070405 -0.203525 -0.475980 -0.220270 0.255438 0.196676 0.157939 0.328983 0.131360 0.278942 0.146014 -0.215223 -0.143339 -0.044815 -0.039071 0.017814 0.110851 0.099807 -0.052456 0.316530 -0.034360 -0.176884 -0.080344 0.147252 0.143621 0.002072 0.222477 0.102696 0.056642 -0.065953 0.147172 -0.078414 -0.083772 -0.008062 0.107761 0.135218 -0.131387 0.147088 -0.032083 -0.005698 -0.098711 -0.250529 0.126485 0.112371 -0.061897 0.034477 0.200823 -0.596833 -0.270496 0.135740 0.055739 -0.182286 -0.003171 -0.058704 -0.190301 -0.169768 0.321422 0.039985 -0.074391 0.054725 -0.122170 -0.094650 0.089505 0.099221 -0.057253 0.078083 -0.208422 0.300533 -0.096058 0.083973 0.063966 -0.101115 -0.168897 -0.290979 0.201959 0.233773 -0.001562 0.069078 -0.484585 0.152201 -0.069743 -0.061822 -0.114776 0.107476 -0.278196 -0.087179 -0.212027 0.272052 -0.229635 0.030339 -0.039631 0.057356 -0.008158 0.025171 0.522959 -0.243239 0.308033 -0.215184 0.131636 
see -0.092088 -0.338216 0.036318 0.282191 -0.190150 -0.000288 0.001198 0.246857 -0.176681 0.429681 -0.258997 0.078503 -0.370528 0.215005 -0.035182 0.014006 -0.143606 0.416887 -0.194187 -0.115259 0.163028 -0.035223 -0.033984 -0.145316 0.109793 -0.130395 -0.264496 0.222506 0.038242 0.141216 0.239204 -0.135234 -0.015955 0.198271 -0.164407 0.007795 0.076254 -0.122270 0.078240 -0.093529 -0.012474 0.174818 0.143937 -0.272237 0.191697 0.068901 -0.260882 0.017023 -0.026537 -0.257798 -0.219895 0.183579 0.204707 -0.145396 -0.111979 -0.131508 -0.195432 0.105232 -0.128788 -0.290813 0.013478 0.248433 0.033583 -0.075980 -0.022690 0.079528 -0.007526 -0.072089 0.097431 -0.025792 -0.178013 0.081623 0.380612 -0.132214 -0.020328 -0.009509 -0.090752 -0.050800 -0.240823 0.089945 0.263790 -0.150974 0.176138 -0.084456 -0.201944 -0.005361 0.080878 -0.037673 0.080583 0.406297 -0.002180 -0.182157 0.156060 -0.086021 -0.045758 0.290933 0.164404 0.046019 0.032573 -0.162093 0.221371 -0.069792 -0.191671 -0.444291 -0.209170 0.240600 0.188873 0.152245 0.307783 0.123189 0.259738 0.135420 -0.201087 -0.134814 -0.042918 -0.034205 0.018734 0.104191 0.089430 -0.044604 0.289901 -0.031643 -0.164514 -0.074889 0.139176 0.136778 0.000128 0.209018 0.098987 0.056411 -0.058844 0.141208 -0.068809 -0.075541 -0.011444 0.101535 0.126812 -0.120670 0.135949 -0.031428 -0.006688 -0.090803 -0.237909 0.114704 0.101489 -0.055196 0.031933 0.185121 -0.549446 -0.255328 0.130895 0.048651 -0.172190 -0.003767 -0.059359 -0.173726 -0.153556 0.303445 0.038483 -0.072219 0.051764 -0.113927 -0.090200 0.081638 0.092025 -0.051985 0.068074 -0.195067 0.278140 -0.088266 0.078600 0.061132 -0.095846 -0.156106 -0.268847 0.186586 0.212933 -0.002748 0.064770 -0.457967 0.141867 -0.066274 -0.059883 -0.111196 0.099676 -0.258759 -0.077859 -0.192945 0.253370 -0.214804 0.024875 -0.035753 0.050046 -0.009932 0.026160 0.489030 -0.227691 0.292801 -0.201671 0.127712 
they -0.092799 -0.346586 0.036737 0.286779 -0.189889 0.001696 -0.000613 0.253317 -0.179822 0.438115 -0.261552 0.080008 -0.377320 0.218866 -0.036008 0.011262 -0.146484 0.423153 -0.201171 -0.115732 0.166545 -0.040349 -0.037230 -0.147533 0.117027 -0.132948 -0.268127 0.225156 0.036064 0.145657 0.241604 -0.135307 -0.017887 0.202852 -0.167979 0.007493 0.075907 -0.124257 0.081284 -0.093176 -0.009742 0.174525 0.146548 -0.283062 0.193115 0.069501 -0.264708 0.015078 -0.030056 -0.267180 -0.223095 0.189513 0.202891 -0.145363 -0.116745 -0.137817 -0.195970 0.109940 -0.132425 -0.296637 0.018079 0.255828 0.032416 -0.076919 -0.021561 0.079980 -0.010581 -0.075750 0.103043 -0.024294 -0.179279 0.087698 0.391495 -0.138912 -0.022539 -0.003920 -0.090868 -0.054581 -0.237137 0.091479 0.264271 -0.156945 0.175753 -0.082624 -0.207500 -0.009844 0.082918 -0.042935 0.077882 0.411652 -0.004154 -0.186066 0.157851 -0.091724 -0.040146 0.297115 0.167231 0.043425 0.026923 -0.167753 0.224115 -0.070562 -0.195352 -0.453116 -0.210626 0.246936 0.190561 0.149297 0.309523 0.123393 0.268563 0.137605 -0.205315 -0.136510 -0.048194 -0.032515 0.016135 0.105731 0.091352 -0.046672 0.302304 -0.032764 -0.167118 -0.075414 0.139683 0.141228 0.003419 0.212496 0.099748 0.052928 -0.059289 0.140395 -0.069149 -0.082571 -0.006804 0.104957 0.129112 -0.128794 0.139472 -0.030483 0.000592 -0.092587 -0.244146 0.121947 0.105334 -0.054506 0.030123 0.191187 -0.566736 -0.262119 0.127731 0.048418 -0.173733 -0.000894 -0.059558 -0.180068 -0.158258 0.306698 0.037668 -0.070838 0.049784 -0.113582 -0.095829 0.079063 0.095066 -0.055552 0.073471 -0.201152 0.288842 -0.091299 0.077846 0.062196 -0.097281 -0.162602 -0.276554 0.192565 0.221621 -0.006071 0.063091 -0.465190 0.145621 -0.065744 -0.054270 -0.115234 0.101559 -0.262907 -0.081945 -0.199139 0.263260 -0.221354 0.023672 -0.038920 0.054385 -0.009171 0.028949 0.503884 -0.229837 0.295541 -0.209126 0.130150 
in -0.092513 -0.342107 0.036271 0.288431 -0.191133 -0.002685 -0.001137 0.249982 -0.176746 0.432516 -0.264171 0.080431 -0.372386 0.218779 -0.041321 0.006370 -0.144096 0.420448 -0.195141 -0.117900 0.165967 -0.035882 -0.033590 -0.147935 0.114331 -0.126185 -0.265594 0.227342 0.034905 0.143667 0.242131 -0.137360 -0.017600 0.194883 -0.168643 0.006128 0.074203 -0.124898 0.081747 -0.092113 -0.009656 0.176278 0.142536 -0.279778 0.192093 0.072175 -0.259854 0.020988 -0.025316 -0.261930 -0.225341 0.188286 0.204423 -0.147465 -0.116036 -0.135816 -0.198641 0.107675 -0.131459 -0.291923 0.015666 0.254040 0.038113 -0.072910 -0.025419 0.083557 -0.006186 -0.073525 0.096433 -0.020830 -0.176246 0.082535 0.389158 -0.134889 -0.024580 -0.010004 -0.091467 -0.052698 -0.239300 0.090773 0.266059 -0.153918 0.174747 -0.078825 -0.200956 -0.009720 0.080876 -0.042244 0.078242 0.406071 0.000684 -0.183139 0.152701 -0.089317 -0.044166 0.298700 0.162581 0.041694 0.029645 -0.163430 0.219242 -0.065284 -0.192921 -0.447655 -0.210110 0.245636 0.188612 0.147186 0.304252 0.124544 0.264592 0.138224 -0.204469 -0.134388 -0.047222 -0.033326 0.015069 0.105119 0.096404 -0.047615 0.298771 -0.028911 -0.166111 -0.077816 0.136352 0.138631 0.001895 0.207846 0.095419 0.053186 -0.058929 0.139081 -0.074116 -0.079528 -0.011356 0.109500 0.131970 -0.127417 0.135177 -0.028901 -0.001107 -0.090823 -0.237542 0.115327 0.104207 -0.058211 0.027642 0.190977 -0.564557 -0.259134 0.127675 0.051074 -0.171868 -0.000208 -0.058194 -0.178519 -0.158737 0.305681 0.032579 -0.069368 0.048938 -0.112298 -0.088567 0.079164 0.090360 -0.055311 0.076158 -0.202164 0.282136 -0.092820 0.079291 0.061454 -0.098805 -0.156626 -0.275661 0.192350 0.221180 -0.001968 0.058342 -0.460623 0.144237 -0.061609 -0.053606 -0.112743 0.100840 -0.258500 -0.082810 -0.196948 0.258908 -0.217953 0.028814 -0.034125 0.050995 -0.007833 0.031718 0.494093 -0.228246 0.290278 -0.204785 0.123792 
his -0.093238 -0.347667 0.038886 0.294837 -0.191981 0.000824 0.000598 0.256191 -0.181087 0.450106 -0.271148 0.084104 -0.387207 0.224182 -0.040457 0.008531 -0.148393 0.428483 -0.200991 -0.119621 0.172093 -0.040182 -0.037776 -0.147368 0.115983 -0.133425 -0.270926 0.229943 0.039072 0.148240 0.249225 -0.141348 -0.017661 0.203422 -0.171908 0.010322 0.078867 -0.129292 0.083757 -0.096757 -0.009600 0.175663 0.146066 -0.281898 0.195229 0.071395 -0.266211 0.017502 -0.026753 -0.270407 -0.230737 0.191143 0.213143 -0.148904 -0.118211 -0.139157 -0.203498 0.112138 -0.132248 -0.304611 0.019730 0.258003 0.034309 -0.076539 -0.024683 0.082149 -0.009688 -0.075564 0.103230 -0.023957 -0.183387 0.085919 0.394361 -0.138988 -0.018059 -0.010814 -0.092540 -0.052873 -0.245762 0.094596 0.271921 -0.160048 0.182944 -0.086676 -0.212628 -0.006031 0.084497 -0.043108 0.082319 0.417321 -0.002043 -0.189774 0.158146 -0.089350 -0.043704 0.301520 0.171763 0.045673 0.028567 -0.167681 0.227174 -0.069040 -0.197636 -0.462336 -0.216248 0.250647 0.197797 0.153707 0.315697 0.124427 0.270284 0.140211 -0.211099 -0.136565 -0.045119 -0.033225 0.017038 0.108642 0.096740 -0.046923 0.301962 -0.035428 -0.166454 -0.080220 0.143956 0.142493 0.003151 0.215212 0.101683 0.054857 -0.062951 0.143131 -0.075454 -0.079333 -0.009232 0.107078 0.133269 -0.129175 0.141084 -0.029644 -0.003753 -0.095875 -0.244191 0.123144 0.107551 -0.059836 0.029293 0.194495 -0.573658 -0.262214 0.132996 0.049328 -0.178752 -0.002918 -0.056493 -0.178888 -0.157802 0.309166 0.035558 -0.072634 0.050182 -0.118520 -0.094918 0.083896 0.092902 -0.055717 0.076461 -0.206925 0.288495 -0.093390 0.082735 0.066426 -0.099512 -0.161734 -0.281630 0.194525 0.226204 -0.000495 0.061810 -0.474949 0.147060 -0.066266 -0.056803 -0.114553 0.109234 -0.267885 -0.084569 -0.203258 0.266154 -0.222043 0.025353 -0.038739 0.056509 -0.010119 0.030037 0.512276 -0.235075 0.299884 -0.207906 0.128289 
be -0.095459 -0.363477 0.037273 0.307175 -0.202394 -0.002834 0.000273 0.267874 -0.191120 0.464701 -0.279708 0.085023 -0.397726 0.232461 -0.041882 0.014047 -0.154309 0.447441 -0.211392 -0.120231 0.175112 -0.039162 -0.038104 -0.157923 0.123472 -0.136211 -0.280903 0.240826 0.039915 0.154057 0.257668 -0.145851 -0.019147 0.212188 -0.174554 0.008155 0.084626 -0.131831 0.085116 -0.099637 -0.010354 0.185089 0.148055 -0.294801 0.205838 0.074087 -0.275236 0.018089 -0.025036 -0.277674 -0.235355 0.199575 0.219967 -0.152433 -0.122540 -0.146525 -0.208936 0.120604 -0.137301 -0.312824 0.017934 0.271865 0.037841 -0.077579 -0.023009 0.087227 -0.008761 -0.079265 0.107620 -0.025312 -0.190622 0.090925 0.414013 -0.143258 -0.022143 -0.004299 -0.101360 -0.054114 -0.252515 0.094730 0.285779 -0.164674 0.184594 -0.088146 -0.218570 -0.008146 0.085386 -0.042195 0.081215 0.433485 0.000800 -0.192944 0.167276 -0.096997 -0.046908 0.317830 0.177162 0.045088 0.029696 -0.172207 0.233561 -0.075085 -0.203464 -0.478408 -0.222854 0.256027 0.198534 0.159005 0.331035 0.130557 0.279881 0.142647 -0.217764 -0.146712 -0.043849 -0.038222 0.016375 0.112174 0.097462 -0.048371 0.316417 -0.036335 -0.175038 -0.081881 0.144092 0.148209 0.001565 0.221887 0.102394 0.056831 -0.065859 0.153887 -0.074745 -0.082522 -0.008861 0.109946 0.138073 -0.132662 0.143904 -0.032935 -0.001908 -0.097568 -0.256263 0.125337 0.107906 -0.059759 0.029230 0.205238 -0.599548 -0.272851 0.140064 0.056885 -0.184477 0.002340 -0.060342 -0.187150 -0.168097 0.324224 0.038589 -0.074973 0.057129 -0.120879 -0.095999 0.088311 0.102530 -0.061357 0.077901 -0.213083 0.303513 -0.096383 0.082412 0.064070 -0.102269 -0.170870 -0.292016 0.201586 0.235189 -0.001526 0.069505 -0.487239 0.155215 -0.070716 -0.061406 -0.116910 0.109016 -0.279613 -0.085981 -0.212134 0.276772 -0.231333 0.029379 -0.038996 0.057817 -0.007329 0.030597 0.526777 -0.245802 0.312183 -0.216017 0.134247 
not -0.096921 -0.362643 0.038372 0.302410 -0.202939 0.000467 0.005752 0.263112 -0.185623 0.458434 -0.279178 0.084863 -0.395610 0.232990 -0.038450 0.009988 -0.152130 0.448326 -0.206314 -0.127100 0.177157 -0.040023 -0.039343 -0.157439 0.123232 -0.134681 -0.281751 0.235834 0.039910 0.152646 0.258259 -0.147322 -0.019913 0.209212 -0.180021 0.010315 0.081276 -0.129034 0.084387 -0.099996 -0.009940 0.183983 0.152756 -0.297400 0.206634 0.071442 -0.279298 0.014932 -0.026146 -0.283017 -0.237957 0.200143 0.221756 -0.157284 -0.124324 -0.142490 -0.207358 0.114878 -0.136984 -0.313770 0.015548 0.265663 0.039041 -0.080943 -0.027299 0.083636 -0.011624 -0.079529 0.106713 -0.024312 -0.187817 0.087598 0.410860 -0.142091 -0.019207 -0.004559 -0.100921 -0.054979 -0.256986 0.097888 0.280031 -0.167247 0.188997 -0.087681 -0.217215 -0.009038 0.085479 -0.041660 0.085628 0.438515 -0.000811 -0.195007 0.168309 -0.091839 -0.045739 0.313425 0.178355 0.047860 0.035838 -0.174877 0.237172 -0.074966 -0.202994 -0.475119 -0.222435 0.257999 0.204778 0.162116 0.324888 0.129292 0.280262 0.144904 -0.217052 -0.146749 -0.044742 -0.035879 0.014847 0.111909 0.099153 -0.050023 0.316795 -0.035378 -0.170921 -0.084735 0.148098 0.146089 0.003808 0.223272 0.109242 0.057311 -0.067681 0.149429 -0.077935 -0.086926 -0.012013 0.110841 0.139523 -0.129827 0.145415 -0.032547 -0.005267 -0.095806 -0.255737 0.125654 0.112650 -0.059941 0.032405 0.198092 -0.593474 -0.271519 0.141084 0.052165 -0.186387 -0.002565 -0.059499 -0.189009 -0.166898 0.326182 0.039483 -0.078717 0.056070 -0.121916 -0.098787 0.082554 0.099841 -0.056294 0.072269 -0.212414 0.300593 -0.095879 0.084234 0.066971 -0.104478 -0.172074 -0.295222 0.200266 0.234127 -0.005549 0.069086 -0.487466 0.153820 -0.071361 -0.059078 -0.116790 0.109048 -0.278642 -0.088180 -0.210258 0.273111 -0.230595 0.028661 -0.037603 0.059391 -0.007982 0.026625 0.529667 -0.242898 0.311150 -0.216701 0.134800 
She -0.111837 -0.401113 0.042439 0.341258 -0.222529 -0.002018 0.002930 0.296394 -0.204350 0.509877 -0.310675 0.095219 -0.441134 0.259045 -0.047389 0.013417 -0.169654 0.493505 -0.232561 -0.141189 0.193865 -0.043921 -0.042556 -0.172648 0.135803 -0.152637 -0.313564 0.263304 0.043987 0.169332 0.289262 -0.159863 -0.018502 0.235216 -0.193955 0.007242 0.088483 -0.142581 0.090603 -0.108645 -0.010584 0.205484 0.170636 -0.329882 0.225946 0.081034 -0.306158 0.015556 -0.027121 -0.310896 -0.263165 0.218681 0.247650 -0.176833 -0.137931 -0.159053 -0.235240 0.129051 -0.152917 -0.347118 0.017766 0.295395 0.041462 -0.092140 -0.030305 0.100177 -0.007319 -0.088833 0.117883 -0.029304 -0.210434 0.097940 0.452923 -0.157842 -0.023127 -0.005024 -0.112367 -0.059593 -0.284438 0.107984 0.312795 -0.179670 0.205182 -0.099858 -0.238500 -0.009848 0.095947 -0.050116 0.092580 0.482579 0.001275 -0.216333 0.184446 -0.102655 -0.049004 0.347485 0.200044 0.053028 0.036599 -0.193516 0.259671 -0.079754 -0.229319 -0.528281 -0.246760 0.284644 0.225259 0.179352 0.361073 0.144921 0.308927 0.162451 -0.240714 -0.163589 -0.054499 -0.039240 0.022190 0.122019 0.105925 -0.060028 0.350027 -0.039038 -0.192316 -0.093378 0.164412 0.162434 0.002150 0.249034 0.113561 0.060385 -0.074809 0.168695 -0.082283 -0.098677 -0.009034 0.125475 0.152783 -0.144893 0.161604 -0.037991 -0.006828 -0.110159 -0.280886 0.136459 0.121076 -0.069537 0.033789 0.224477 -0.665089 -0.304452 0.150188 0.059570 -0.205969 -0.004952 -0.067668 -0.212186 -0.188254 0.362955 0.045562 -0.085288 0.063826 -0.136045 -0.105291 0.094686 0.112020 -0.064988 0.083247 -0.235042 0.337814 -0.109805 0.089189 0.072522 -0.115840 -0.187684 -0.330948 0.226343 0.264183 -0.000813 0.074091 -0.539336 0.169143 -0.077739 -0.061435 -0.129944 0.119538 -0.311420 -0.097771 -0.233672 0.308024 -0.254291 0.029859 -0.044231 0.059944 -0.006697 0.027202 0.585563 -0.271027 0.345759 -0.242654 0.146560 
her -0.089980 -0.326672 0.031260 0.275580 -0.177895 0.001811 0.005180 0.238609 -0.166057 0.412595 -0.249047 0.074844 -0.355273 0.207112 -0.038111 0.008348 -0.140208 0.399518 -0.184610 -0.113643 0.157741 -0.032879 -0.039159 -0.140882 0.105470 -0.120521 -0.248768 0.210102 0.031139 0.139928 0.229974 -0.129809 -0.015718 0.183079 -0.158086 0.008409 0.068949 -0.116352 0.078933 -0.087350 -0.009324 0.167312 0.139008 -0.266679 0.183871 0.065944 -0.250944 0.012186 -0.026791 -0.249029 -0.208367 0.180043 0.194955 -0.137881 -0.110974 -0.128045 -0.185663 0.104338 -0.124654 -0.276939 0.018500 0.235563 0.036557 -0.074903 -0.023295 0.081612 -0.005366 -0.074217 0.094433 -0.023445 -0.168060 0.080737 0.363565 -0.127659 -0.019376 -0.003917 -0.091089 -0.047417 -0.226658 0.084555 0.247527 -0.149386 0.165246 -0.080953 -0.196420 -0.009340 0.080392 -0.038894 0.075766 0.388170 0.003006 -0.174351 0.150087 -0.083348 -0.040499 0.283719 0.159964 0.043758 0.028321 -0.156674 0.215293 -0.065664 -0.186588 -0.427436 -0.201992 0.228276 0.179839 0.142864 0.291143 0.113223 0.250114 0.127933 -0.196214 -0.132597 -0.042930 -0.031556 0.013683 0.100174 0.090711 -0.047991 0.280600 -0.029813 -0.154633 -0.073251 0.133733 0.131377 0.007155 0.202608 0.095292 0.050558 -0.056910 0.133207 -0.067855 -0.081556 -0.009268 0.101247 0.124668 -0.121256 0.127101 -0.029896 -0.007836 -0.089787 -0.229041 0.110736 0.098535 -0.052112 0.029761 0.180487 -0.535061 -0.241357 0.122472 0.047789 -0.165313 -0.005948 -0.056314 -0.171369 -0.147278 0.291095 0.034868 -0.067052 0.053783 -0.109981 -0.085546 0.077491 0.091849 -0.051987 0.068389 -0.189588 0.275010 -0.083549 0.071610 0.058610 -0.094405 -0.154223 -0.264350 0.181055 0.211758 -0.003670 0.061747 -0.433150 0.134465 -0.057991 -0.048538 -0.105488 0.097933 -0.248654 -0.077132 -0.186916 0.247556 -0.209079 0.020268 -0.035474 0.048380 -0.008988 0.021741 0.472770 -0.217824 0.276104 -0.192758 0.117177 
new -0.090580 -0.354943 0.033514 0.299279 -0.197134 0.000176 -0.003363 0.257607 -0.185634 0.446340 -0.270416 0.079861 -0.389888 0.227577 -0.038158 0.007307 -0.150761 0.431293 -0.202879 -0.117886 0.175612 -0.043893 -0.034871 -0.152075 0.117569 -0.137307 -0.273135 0.234313 0.036908 0.150783 0.248800 -0.140600 -0.018477 0.204598 -0.169183 0.008154 0.082947 -0.129278 0.081182 -0.099073 -0.013851 0.177480 0.149208 -0.285572 0.199846 0.070421 -0.272710 0.018273 -0.028381 -0.271129 -0.228543 0.190702 0.210400 -0.152336 -0.116604 -0.146139 -0.201745 0.117156 -0.134444 -0.306155 0.020570 0.259994 0.034669 -0.074067 -0.028332 0.085050 -0.012109 -0.077260 0.102737 -0.025630 -0.184808 0.086384 0.401569 -0.141968 -0.022094 -0.005648 -0.094928 -0.053349 -0.248937 0.097576 0.278589 -0.157543 0.184184 -0.081763 -0.213684 -0.009242 0.083708 -0.044070 0.079039 0.420601 0.000513 -0.184809 0.162755 -0.089398 -0.045411 0.304632 0.169739 0.044429 0.032614 -0.169643 0.230260 -0.068896 -0.202432 -0.462927 -0.218581 0.249267 0.192266 0.153517 0.316906 0.125039 0.274368 0.144471 -0.212053 -0.138620 -0.042540 -0.033486 0.018507 0.112070 0.097630 -0.047097 0.311887 -0.032369 -0.169652 -0.076963 0.144216 0.142287 0.001099 0.219071 0.103484 0.053439 -0.064339 0.147057 -0.076400 -0.081511 -0.012174 0.108697 0.133889 -0.126898 0.138836 -0.027616 -0.004369 -0.096455 -0.246364 0.125869 0.108183 -0.056391 0.033382 0.197638 -0.583602 -0.267320 0.131029 0.051890 -0.177795 0.002715 -0.056579 -0.181219 -0.162642 0.310274 0.034073 -0.072558 0.050343 -0.117952 -0.094360 0.083543 0.093379 -0.058000 0.077004 -0.204863 0.292580 -0.093742 0.080448 0.066360 -0.095591 -0.164496 -0.287004 0.196575 0.229376 0.000894 0.064767 -0.475394 0.147406 -0.064485 -0.059332 -0.114977 0.102191 -0.271360 -0.084145 -0.200112 0.268843 -0.220476 0.032450 -0.035729 0.055836 -0.010008 0.030445 0.513057 -0.235722 0.302627 -0.215875 0.130320 
very -0.092338 -0.340115 0.038224 0.286149 -0.191742 -0.003257 0.001356 0.250061 -0.178066 0.433794 -0.263655 0.078914 -0.376481 0.219519 -0.039079 0.008432 -0.141797 0.417338 -0.195230 -0.115634 0.167788 -0.037701 -0.037012 -0.145602 0.111387 -0.129319 -0.264630 0.221810 0.035580 0.141759 0.244587 -0.138517 -0.012656 0.197282 -0.168312 0.009417 0.073172 -0.122915 0.079069 -0.096018 -0.009444 0.170913 0.143672 -0.277456 0.192635 0.070481 -0.259891 0.014050 -0.026215 -0.261190 -0.221113 0.184264 0.207005 -0.143824 -0.116867 -0.134130 -0.198002 0.108635 -0.128892 -0.296037 0.016204 0.249593 0.037105 -0.077136 -0.021880 0.083435 -0.008349 -0.074134 0.099168 -0.022130 -0.177314 0.086024 0.383594 -0.133386 -0.015759 -0.006527 -0.093875 -0.049877 -0.238683 0.089518 0.266200 -0.156690 0.175097 -0.081449 -0.203747 -0.009632 0.081963 -0.041089 0.076657 0.408386 0.000205 -0.186057 0.155745 -0.090448 -0.042666 0.296881 0.168212 0.044226 0.029872 -0.165452 0.219865 -0.071778 -0.191194 -0.446787 -0.213451 0.242703 0.188374 0.147655 0.305453 0.119535 0.261019 0.138754 -0.204698 -0.136876 -0.043501 -0.032957 0.018186 0.103390 0.090009 -0.048274 0.296743 -0.031254 -0.165846 -0.076229 0.141704 0.140213 0.004113 0.210428 0.099035 0.050584 -0.062080 0.142498 -0.072869 -0.081521 -0.004530 0.105344 0.129956 -0.122738 0.139047 -0.031083 -0.004302 -0.094184 -0.239479 0.119539 0.103568 -0.058917 0.026824 0.192189 -0.562035 -0.258704 0.128451 0.051570 -0.173185 -0.002858 -0.058761 -0.176477 -0.157836 0.305105 0.039153 -0.072886 0.052520 -0.116081 -0.091754 0.081997 0.095591 -0.051405 0.069175 -0.198439 0.284978 -0.091385 0.075709 0.061466 -0.097614 -0.158025 -0.278602 0.193152 0.220539 0.000438 0.060743 -0.459096 0.144376 -0.063066 -0.057609 -0.108531 0.101984 -0.262264 -0.081855 -0.197551 0.259105 -0.214473 0.024409 -0.035902 0.052525 -0.007524 0.027231 0.499688 -0.227304 0.293869 -0.203345 0.126319 
so -0.100928 -0.372237 0.034567 0.309582 -0.206445 -0.002831 0.000569 0.271828 -0.193088 0.472044 -0.282050 0.084741 -0.404177 0.238298 -0.041229 0.011810 -0.159516 0.457476 -0.211834 -0.130417 0.183781 -0.042737 -0.040522 -0.161429 0.126538 -0.138489 -0.291806 0.242460 0.041783 0.159152 0.266081 -0.149744 -0.019363 0.217589 -0.183425 0.007988 0.084300 -0.136851 0.086271 -0.104048 -0.011085 0.191292 0.154783 -0.304612 0.208458 0.076606 -0.286522 0.021899 -0.032303 -0.285987 -0.242899 0.204392 0.221751 -0.158792 -0.124708 -0.148749 -0.210677 0.117487 -0.142539 -0.320004 0.018774 0.270443 0.039363 -0.080252 -0.027225 0.090806 -0.012289 -0.078733 0.107923 -0.027993 -0.194472 0.090255 0.422679 -0.147387 -0.024895 -0.002659 -0.098216 -0.052544 -0.255229 0.097194 0.285347 -0.170813 0.192246 -0.088586 -0.218791 -0.011438 0.092219 -0.043416 0.082750 0.441799 0.000936 -0.200968 0.170058 -0.100158 -0.044581 0.321701 0.180976 0.048889 0.035253 -0.178117 0.240350 -0.074154 -0.208323 -0.485897 -0.230322 0.262584 0.203646 0.163963 0.333804 0.133661 0.290182 0.146822 -0.223140 -0.147383 -0.046847 -0.037911 0.016371 0.115600 0.101324 -0.054933 0.321906 -0.035740 -0.181076 -0.083235 0.153088 0.152187 0.001856 0.229110 0.103286 0.060290 -0.068422 0.153224 -0.072819 -0.087579 -0.007096 0.115382 0.139825 -0.135915 0.148645 -0.029488 -0.004250 -0.099905 -0.258695 0.125898 0.110666 -0.062328 0.028777 0.209695 -0.610501 -0.283148 0.143422 0.050008 -0.186168 -0.000902 -0.061332 -0.191961 -0.172123 0.332627 0.042155 -0.076180 0.055934 -0.124221 -0.097505 0.091993 0.103449 -0.058393 0.079616 -0.218675 0.309529 -0.096359 0.080074 0.062192 -0.104572 -0.175876 -0.297969 0.208201 0.239115 -0.000762 0.069160 -0.494776 0.160381 -0.070001 -0.058139 -0.121117 0.109098 -0.282867 -0.087812 -0.216370 0.280248 -0.237090 0.029501 -0.042248 0.056481 -0.013799 0.031687 0.541087 -0.249625 0.321867 -0.221108 0.132866 
your -0.104188 -0.390344 0.036070 0.329456 -0.215036 -0.001661 0.000043 0.285505 -0.200592 0.492801 -0.298256 0.087895 -0.423984 0.248924 -0.046151 0.013061 -0.162160 0.476183 -0.222353 -0.129688 0.191312 -0.045172 -0.039918 -0.166663 0.131460 -0.147541 -0.297349 0.254414 0.043818 0.165770 0.274892 -0.153515 -0.017814 0.224738 -0.185763 0.006369 0.088161 -0.138681 0.091828 -0.105629 -0.010312 0.197519 0.162039 -0.314124 0.218797 0.079269 -0.298765 0.021943 -0.030844 -0.298873 -0.250358 0.213022 0.230397 -0.166419 -0.130177 -0.159936 -0.225249 0.126542 -0.152259 -0.333263 0.020887 0.289917 0.037126 -0.082791 -0.029811 0.093863 -0.014973 -0.084895 0.110446 -0.026021 -0.200726 0.095644 0.436792 -0.155193 -0.028097 -0.006024 -0.106350 -0.063116 -0.269974 0.105393 0.307653 -0.169927 0.199101 -0.091965 -0.231845 -0.010007 0.090454 -0.046759 0.087181 0.463029 0.001847 -0.205765 0.176601 -0.099255 -0.048207 0.338416 0.185029 0.048612 0.035460 -0.189363 0.251604 -0.076088 -0.222941 -0.509506 -0.238363 0.275395 0.213069 0.173135 0.349741 0.138360 0.299598 0.154741 -0.230180 -0.154891 -0.048515 -0.037674 0.015793 0.119421 0.106908 -0.050555 0.342128 -0.034922 -0.186545 -0.087776 0.161822 0.158796 0.000944 0.240785 0.112371 0.058302 -0.070195 0.163796 -0.082954 -0.091754 -0.012917 0.116368 0.143347 -0.140080 0.152117 -0.033013 -0.004443 -0.102860 -0.273004 0.131894 0.118958 -0.064722 0.031346 0.213941 -0.637211 -0.290060 0.144012 0.059257 -0.196139 0.004531 -0.065629 -0.199023 -0.178228 0.341277 0.041467 -0.080071 0.058555 -0.131163 -0.105559 0.091630 0.105051 -0.060966 0.082708 -0.227291 0.323286 -0.102650 0.087983 0.068361 -0.107544 -0.181084 -0.313892 0.213047 0.247993 -0.001160 0.068482 -0.522586 0.161817 -0.075660 -0.064128 -0.126800 0.110824 -0.299665 -0.096870 -0.224955 0.294578 -0.247628 0.035105 -0.037837 0.059522 -0.012628 0.032068 0.563817 -0.255746 0.334101 -0.232299 0.141395 
He -0.083975 -0.305198 0.030668 0.255586 -0.167929 -0.003087 0.000145 0.223571 -0.160418 0.386390 -0.237324 0.073042 -0.333745 0.194149 -0.033296 0.009855 -0.128522 0.374112 -0.177446 -0.104611 0.152588 -0.031032 -0.033106 -0.132147 0.100508 -0.116631 -0.234424 0.203026 0.035038 0.131653 0.217608 -0.121017 -0.016626 0.174495 -0.147827 0.005268 0.065050 -0.109534 0.071128 -0.086232 -0.011164 0.156150 0.129271 -0.250270 0.172591 0.060536 -0.232376 0.015357 -0.025835 -0.235143 -0.198161 0.163409 0.188260 -0.130731 -0.103178 -0.122208 -0.177841 0.094594 -0.117965 -0.266976 0.012513 0.225644 0.033528 -0.070194 -0.020174 0.074465 -0.006796 -0.064709 0.088003 -0.021506 -0.159275 0.075473 0.342441 -0.120920 -0.018768 -0.007795 -0.083186 -0.048702 -0.212669 0.078509 0.235141 -0.140058 0.157360 -0.074576 -0.183769 -0.010151 0.071353 -0.036320 0.070857 0.364042 -0.001836 -0.163182 0.139271 -0.077751 -0.037019 0.265980 0.149545 0.043103 0.025376 -0.145631 0.199094 -0.061703 -0.170864 -0.400469 -0.191274 0.215247 0.172524 0.133016 0.273355 0.110085 0.236069 0.123543 -0.179286 -0.118867 -0.041526 -0.031433 0.015151 0.094391 0.081121 -0.038682 0.263829 -0.027717 -0.148588 -0.070869 0.127641 0.122209 0.001540 0.188385 0.089302 0.049770 -0.053024 0.127171 -0.065345 -0.073740 -0.006574 0.093294 0.115734 -0.113482 0.124324 -0.024448 -0.005542 -0.086411 -0.215366 0.107499 0.094485 -0.051034 0.025742 0.168157 -0.502986 -0.230945 0.115026 0.045665 -0.155586 -0.002886 -0.051353 -0.156555 -0.138752 0.272098 0.035565 -0.065584 0.046210 -0.102628 -0.084203 0.069374 0.085392 -0.050081 0.063399 -0.182053 0.252964 -0.084299 0.069142 0.057993 -0.088222 -0.143186 -0.248415 0.168315 0.200985 0.000779 0.056316 -0.411632 0.129487 -0.058359 -0.050402 -0.099246 0.093959 -0.236443 -0.074020 -0.178761 0.235541 -0.194621 0.021885 -0.032955 0.046187 -0.008561 0.023993 0.444518 -0.206005 0.265086 -0.182593 0.114361 
on -0.107992 -0.398248 0.039212 0.336454 -0.224334 0.000897 0.002979 0.292839 -0.205185 0.508441 -0.304660 0.092428 -0.437074 0.255660 -0.043660 0.010751 -0.172587 0.490175 -0.227096 -0.136526 0.194827 -0.045183 -0.044809 -0.169689 0.137157 -0.145938 -0.312807 0.262271 0.043346 0.169986 0.281305 -0.164381 -0.016635 0.229366 -0.196692 0.009307 0.086651 -0.148036 0.092399 -0.108481 -0.008315 0.205319 0.165178 -0.326331 0.225619 0.081158 -0.304095 0.016842 -0.032677 -0.310371 -0.259514 0.218801 0.238416 -0.173928 -0.133490 -0.157625 -0.232597 0.125562 -0.152412 -0.345585 0.020549 0.290616 0.040582 -0.092392 -0.028684 0.093324 -0.010246 -0.086927 0.119563 -0.025121 -0.206773 0.103301 0.449336 -0.158496 -0.020950 -0.004247 -0.105249 -0.062432 -0.280485 0.102461 0.309316 -0.179774 0.204845 -0.096153 -0.238087 -0.010773 0.094323 -0.046829 0.092794 0.475874 -0.001577 -0.213040 0.182513 -0.104297 -0.048143 0.345665 0.197332 0.051182 0.034693 -0.195033 0.262439 -0.080060 -0.223744 -0.523679 -0.246087 0.286201 0.223324 0.172426 0.352967 0.141255 0.310117 0.158796 -0.240797 -0.158758 -0.052643 -0.041733 0.017570 0.122413 0.109413 -0.057884 0.347275 -0.040064 -0.189091 -0.089419 0.160236 0.161373 0.003858 0.250323 0.113249 0.059491 -0.068248 0.164747 -0.083726 -0.096046 -0.010606 0.124066 0.150523 -0.147807 0.160569 -0.036674 -0.003107 -0.110189 -0.278847 0.138575 0.124448 -0.066714 0.031318 0.219789 -0.656526 -0.301176 0.149438 0.056264 -0.205621 0.000917 -0.071806 -0.210315 -0.182138 0.355160 0.042644 -0.083199 0.063329 -0.131780 -0.105201 0.090851 0.108817 -0.062679 0.083028 -0.235350 0.335175 -0.105675 0.088393 0.072933 -0.112394 -0.188877 -0.323721 0.222339 0.257549 -0.003795 0.071158 -0.538209 0.166459 -0.076237 -0.066946 -0.129820 0.120488 -0.307065 -0.097525 -0.233557 0.308128 -0.257725 0.027069 -0.041029 0.063013 -0.010243 0.029109 0.580579 -0.269696 0.342531 -0.240510 0.149503 
my -0.086436 -0.319346 0.036312 0.265651 -0.177851 0.002487 0.004013 0.233765 -0.165662 0.403049 -0.247450 0.071274 -0.348770 0.201909 -0.036624 0.005201 -0.133359 0.391043 -0.181210 -0.109058 0.158041 -0.035285 -0.036250 -0.136993 0.103838 -0.120353 -0.246173 0.207668 0.035905 0.133440 0.225213 -0.125447 -0.012388 0.178850 -0.155367 0.005115 0.073748 -0.115663 0.074937 -0.089000 -0.008403 0.158248 0.133657 -0.261555 0.178693 0.067101 -0.242952 0.019017 -0.024405 -0.248373 -0.205308 0.176196 0.195357 -0.133232 -0.105206 -0.132145 -0.180742 0.105212 -0.118622 -0.276075 0.013212 0.237778 0.029555 -0.069853 -0.025525 0.077808 -0.010731 -0.071328 0.088376 -0.022255 -0.167155 0.074282 0.358723 -0.123111 -0.018294 -0.005748 -0.086104 -0.048335 -0.224296 0.082044 0.249919 -0.138712 0.164703 -0.074867 -0.193977 -0.010438 0.074278 -0.040970 0.072399 0.381968 -0.002298 -0.173993 0.145966 -0.083419 -0.041046 0.272508 0.155721 0.036345 0.025369 -0.150854 0.204247 -0.064413 -0.182596 -0.417621 -0.197186 0.222690 0.176652 0.143472 0.286813 0.112580 0.240905 0.128272 -0.188841 -0.124144 -0.036939 -0.029624 0.014423 0.098156 0.090271 -0.041886 0.276153 -0.028605 -0.149693 -0.072807 0.130592 0.127648 0.001552 0.200658 0.090703 0.044999 -0.059952 0.132832 -0.062613 -0.073861 -0.007757 0.099177 0.117459 -0.118475 0.131183 -0.023526 -0.006540 -0.086565 -0.220659 0.111389 0.094824 -0.054181 0.025317 0.176264 -0.521786 -0.237191 0.118147 0.045846 -0.160342 -0.002446 -0.056315 -0.161373 -0.147075 0.281253 0.036555 -0.070183 0.047423 -0.109286 -0.084208 0.078587 0.087365 -0.053325 0.067771 -0.184798 0.262093 -0.085528 0.072343 0.052779 -0.092385 -0.147756 -0.258841 0.179152 0.207435 0.000110 0.056974 -0.427456 0.135771 -0.059882 -0.054178 -0.103351 0.095442 -0.244077 -0.078709 -0.182837 0.238281 -0.203713 0.027106 -0.033917 0.050491 -0.010958 0.021473 0.461533 -0.213631 0.274145 -0.190991 0.119448 
she -0.085701 -0.305606 0.034745 0.259700 -0.170825 -0.003601 0.005413 0.219539 -0.154231 0.382071 -0.230825 0.070020 -0.334466 0.197538 -0.036794 0.009207 -0.125768 0.375266 -0.176070 -0.103509 0.150287 -0.032775 -0.034473 -0.132399 0.103914 -0.113914 -0.240068 0.196333 0.030521 0.130718 0.218842 -0.120324 -0.016176 0.174639 -0.148400 0.007099 0.065111 -0.105831 0.065751 -0.083471 -0.008114 0.152847 0.130700 -0.245678 0.168985 0.065022 -0.230002 0.009424 -0.019658 -0.231766 -0.196845 0.165711 0.189504 -0.134906 -0.103794 -0.123532 -0.175900 0.093439 -0.115926 -0.261326 0.009803 0.222325 0.028678 -0.070337 -0.024098 0.071189 -0.004116 -0.067667 0.085523 -0.025485 -0.159607 0.073348 0.339911 -0.116229 -0.016496 -0.005333 -0.087217 -0.038626 -0.217457 0.078771 0.240145 -0.135485 0.149581 -0.075279 -0.177613 -0.005922 0.072387 -0.036236 0.070562 0.364697 -0.004176 -0.165218 0.136330 -0.075084 -0.037648 0.261438 0.151763 0.038700 0.030555 -0.146508 0.192742 -0.064073 -0.170218 -0.393868 -0.187801 0.216183 0.171993 0.136546 0.275789 0.109273 0.229192 0.121952 -0.186975 -0.123761 -0.041537 -0.030689 0.017117 0.092667 0.080883 -0.040987 0.263025 -0.026895 -0.138312 -0.071978 0.123851 0.122349 0.004327 0.192617 0.090608 0.045624 -0.062960 0.129020 -0.062582 -0.074969 -0.007202 0.094848 0.115774 -0.112628 0.122979 -0.026132 -0.009835 -0.081288 -0.210444 0.102652 0.091952 -0.048454 0.028560 0.168122 -0.502029 -0.229233 0.112876 0.050035 -0.152963 -0.003957 -0.055319 -0.157317 -0.140541 0.270344 0.032479 -0.064393 0.047008 -0.107693 -0.084132 0.070525 0.083519 -0.043902 0.058867 -0.176916 0.254193 -0.079532 0.064732 0.055041 -0.085491 -0.138628 -0.249407 0.165217 0.199006 0.000410 0.055723 -0.407931 0.126029 -0.055905 -0.046231 -0.098997 0.092806 -0.233499 -0.073284 -0.174495 0.231394 -0.190845 0.018994 -0.032786 0.048130 -0.003065 0.019762 0.440991 -0.204384 0.262336 -0.181045 0.108282 
We -0.084758 -0.321144 0.035396 0.271853 -0.178803 -0.002329 -0.002377 0.237413 -0.167858 0.411552 -0.250979 0.074024 -0.352547 0.206369 -0.035386 0.011681 -0.133108 0.395480 -0.183289 -0.110410 0.159463 -0.034456 -0.034206 -0.136010 0.107361 -0.121091 -0.246860 0.207136 0.036630 0.136993 0.225845 -0.126534 -0.017145 0.185916 -0.156772 0.010213 0.070471 -0.118387 0.072660 -0.087017 -0.008946 0.164166 0.133900 -0.263674 0.183079 0.066555 -0.245898 0.015899 -0.026563 -0.243651 -0.209158 0.173612 0.192697 -0.136824 -0.108730 -0.128677 -0.184437 0.104354 -0.124329 -0.277691 0.016723 0.235493 0.033626 -0.068434 -0.023428 0.074750 -0.008290 -0.071112 0.092861 -0.023426 -0.167905 0.079794 0.360552 -0.125936 -0.019176 -0.002906 -0.088570 -0.047560 -0.226345 0.085706 0.251349 -0.147156 0.162589 -0.078290 -0.191452 -0.006571 0.077284 -0.037395 0.069911 0.385715 0.000530 -0.170546 0.144450 -0.084021 -0.040729 0.277668 0.157862 0.042375 0.025651 -0.154986 0.205789 -0.061991 -0.179214 -0.417762 -0.197188 0.224722 0.179465 0.142307 0.288948 0.114369 0.249475 0.126763 -0.188728 -0.129228 -0.037689 -0.035334 0.013423 0.098804 0.089689 -0.042875 0.280735 -0.029642 -0.155309 -0.075019 0.130780 0.131640 0.003870 0.199850 0.088142 0.046680 -0.057421 0.134553 -0.067925 -0.073851 -0.005021 0.095847 0.120666 -0.116986 0.130955 -0.030319 -0.004295 -0.087938 -0.225767 0.111729 0.097310 -0.052404 0.026814 0.176517 -0.525782 -0.239264 0.123797 0.048986 -0.161508 -0.000468 -0.053453 -0.168003 -0.149534 0.287015 0.035918 -0.066037 0.048410 -0.109424 -0.088532 0.075694 0.087067 -0.050756 0.068130 -0.191657 0.267032 -0.085628 0.074054 0.057600 -0.090857 -0.152036 -0.256848 0.177653 0.208601 -0.002473 0.056928 -0.432305 0.134670 -0.058848 -0.053830 -0.102433 0.095346 -0.243485 -0.076588 -0.187652 0.245547 -0.200627 0.024622 -0.032752 0.046528 -0.010369 0.022745 0.465040 -0.215763 0.277488 -0.191644 0.116232 
with -0.082578 -0.301376 0.030532 0.253363 -0.169214 -0.000238 0.000507 0.222513 -0.156603 0.382826 -0.232315 0.070135 -0.327367 0.195632 -0.036280 0.010630 -0.128534 0.368416 -0.174771 -0.104675 0.149792 -0.035478 -0.031161 -0.129400 0.102231 -0.115981 -0.233921 0.195684 0.032387 0.128896 0.213942 -0.119981 -0.013649 0.172434 -0.147081 0.009735 0.065581 -0.108462 0.068926 -0.083117 -0.011702 0.150396 0.123920 -0.246054 0.169441 0.061447 -0.228215 0.013726 -0.026087 -0.233398 -0.197732 0.167053 0.177403 -0.130768 -0.104427 -0.120581 -0.173524 0.097975 -0.115580 -0.258635 0.016792 0.222211 0.033718 -0.067623 -0.018546 0.072550 -0.006176 -0.066116 0.089014 -0.020433 -0.155118 0.072850 0.342253 -0.120401 -0.017164 -0.002888 -0.082805 -0.044987 -0.207336 0.079534 0.232542 -0.135999 0.156357 -0.075036 -0.180368 -0.010557 0.071806 -0.037234 0.065758 0.357939 0.001551 -0.160142 0.135103 -0.078611 -0.035851 0.259632 0.150321 0.036214 0.027679 -0.145349 0.195579 -0.060518 -0.169109 -0.395412 -0.185891 0.214741 0.164403 0.130096 0.268072 0.108508 0.232659 0.119404 -0.182097 -0.121446 -0.036334 -0.028374 0.014180 0.096466 0.080909 -0.045199 0.265026 -0.028955 -0.145779 -0.067222 0.123230 0.121956 -0.000845 0.187840 0.088524 0.045750 -0.052856 0.125526 -0.061784 -0.069181 -0.007703 0.091919 0.112536 -0.109410 0.116216 -0.025442 -0.006423 -0.080682 -0.210508 0.105577 0.090866 -0.050027 0.026637 0.167023 -0.495798 -0.226922 0.113393 0.046875 -0.151324 -0.002090 -0.051781 -0.157382 -0.137150 0.271167 0.029808 -0.063243 0.043658 -0.102473 -0.081394 0.068371 0.082102 -0.049360 0.062352 -0.177891 0.250290 -0.077447 0.068011 0.050717 -0.088247 -0.139617 -0.243831 0.169775 0.193341 -0.003568 0.057685 -0.402386 0.125898 -0.054853 -0.047967 -0.098709 0.090505 -0.232963 -0.075207 -0.171514 0.226606 -0.188699 0.024909 -0.032086 0.044975 -0.010834 0.026012 0.438801 -0.201207 0.256908 -0.182106 0.111860 
wolf -0.081853 -0.296161 0.027426 0.247041 -0.168176 0.001741 0.002930 0.217593 -0.151858 0.372950 -0.223477 0.065474 -0.322752 0.192075 -0.034393 0.009778 -0.123100 0.363863 -0.168759 -0.100229 0.145145 -0.031574 -0.030515 -0.126236 0.101118 -0.106084 -0.223992 0.194950 0.029642 0.125053 0.206909 -0.120186 -0.016735 0.168562 -0.142408 0.004852 0.060612 -0.109893 0.070180 -0.081892 -0.005146 0.147255 0.122228 -0.242425 0.165741 0.060383 -0.227322 0.014644 -0.021950 -0.226518 -0.195196 0.157934 0.174233 -0.127633 -0.100995 -0.119438 -0.168586 0.091947 -0.112401 -0.253118 0.014111 0.216385 0.030025 -0.067964 -0.019402 0.067696 -0.009370 -0.068179 0.085701 -0.019720 -0.154512 0.075670 0.332385 -0.115920 -0.018261 -0.006749 -0.077086 -0.043434 -0.202750 0.077152 0.231226 -0.132109 0.152626 -0.069276 -0.175414 -0.006962 0.071432 -0.032046 0.064991 0.351697 0.001724 -0.158895 0.134123 -0.076475 -0.034747 0.254641 0.143159 0.041678 0.027149 -0.141198 0.188844 -0.061845 -0.167490 -0.386527 -0.181501 0.210047 0.164532 0.128535 0.261191 0.101948 0.229381 0.117811 -0.178659 -0.112859 -0.038334 -0.026275 0.014166 0.088689 0.080251 -0.043781 0.255797 -0.028621 -0.141157 -0.067552 0.116844 0.118374 0.000187 0.184444 0.084358 0.044083 -0.046143 0.118679 -0.059878 -0.073168 -0.003635 0.091521 0.108532 -0.106563 0.118070 -0.027834 0.000866 -0.077805 -0.204348 0.102947 0.089309 -0.048222 0.027863 0.159674 -0.478015 -0.220963 0.108456 0.045155 -0.153027 -0.002308 -0.052522 -0.152065 -0.135986 0.266579 0.028681 -0.058665 0.045411 -0.095694 -0.075921 0.067584 0.074837 -0.051119 0.061019 -0.175968 0.246759 -0.076842 0.069800 0.051876 -0.083322 -0.135533 -0.235907 0.163834 0.189875 -0.004222 0.049820 -0.390542 0.124976 -0.059362 -0.044882 -0.094823 0.090057 -0.228003 -0.073606 -0.172569 0.226646 -0.191201 0.018838 -0.027835 0.044279 -0.004480 0.021579 0.428209 -0.196653 0.246866 -0.173440 0.106420 
all -0.114225 -0.418272 0.045048 0.351366 -0.232165 0.001296 0.003665 0.310603 -0.214482 0.530009 -0.321818 0.098585 -0.458891 0.270384 -0.046134 0.012949 -0.178696 0.516303 -0.241069 -0.145521 0.204573 -0.044475 -0.042964 -0.181841 0.141638 -0.156023 -0.323454 0.278103 0.047304 0.177014 0.296146 -0.169368 -0.017130 0.243655 -0.205073 0.009629 0.093429 -0.151252 0.097006 -0.115335 -0.013812 0.212781 0.179523 -0.344564 0.237053 0.084274 -0.320796 0.018779 -0.035105 -0.321941 -0.273935 0.230420 0.254725 -0.179711 -0.144700 -0.168685 -0.244519 0.134729 -0.160914 -0.359400 0.020789 0.306294 0.046485 -0.094797 -0.027320 0.100767 -0.008772 -0.092973 0.122738 -0.031093 -0.220141 0.103900 0.477243 -0.165023 -0.024908 -0.007134 -0.114132 -0.062131 -0.294669 0.113918 0.327786 -0.192645 0.216792 -0.102697 -0.253095 -0.013741 0.102591 -0.052194 0.095849 0.501399 -0.001330 -0.227778 0.189540 -0.109979 -0.053075 0.366977 0.204842 0.056360 0.040103 -0.200612 0.274079 -0.084421 -0.236244 -0.549814 -0.259181 0.299110 0.235232 0.184601 0.378261 0.150811 0.323189 0.164979 -0.250355 -0.164985 -0.054740 -0.043383 0.022680 0.130306 0.112513 -0.056631 0.362094 -0.040149 -0.205146 -0.093969 0.172053 0.168453 0.000178 0.258677 0.120378 0.063187 -0.074212 0.172823 -0.084361 -0.097235 -0.007579 0.128141 0.161976 -0.154003 0.170275 -0.036039 -0.002792 -0.111882 -0.296029 0.145542 0.125274 -0.069520 0.034607 0.232553 -0.688480 -0.316377 0.156361 0.062005 -0.211727 -0.000173 -0.071697 -0.217460 -0.192540 0.374501 0.048387 -0.087116 0.062145 -0.142256 -0.112764 0.096689 0.113872 -0.064947 0.086969 -0.247770 0.349037 -0.109227 0.094390 0.073208 -0.121948 -0.195399 -0.340180 0.233818 0.270384 -0.003594 0.078772 -0.566620 0.177173 -0.078852 -0.067244 -0.137156 0.126119 -0.322071 -0.099520 -0.243182 0.316477 -0.264421 0.033001 -0.044485 0.062236 -0.011254 0.031110 0.610059 -0.281426 0.363997 -0.249204 0.154089 
that -0.099522 -0.369990 0.036364 0.311804 -0.206746 -0.000651 0.000352 0.270377 -0.192387 0.468979 -0.285253 0.087275 -0.406354 0.237953 -0.041396 0.011841 -0.158650 0.456468 -0.215678 -0.128716 0.183153 -0.040957 -0.039252 -0.156687 0.121774 -0.140933 -0.288839 0.243956 0.041520 0.156170 0.264500 -0.145086 -0.019737 0.215095 -0.179716 0.006567 0.084763 -0.134207 0.088614 -0.100791 -0.010955 0.188036 0.152628 -0.303461 0.206864 0.070911 -0.283573 0.018661 -0.031437 -0.285381 -0.243034 0.202940 0.223514 -0.157644 -0.122760 -0.148004 -0.214871 0.119092 -0.139832 -0.316231 0.015768 0.267534 0.037256 -0.080621 -0.029204 0.089604 -0.007440 -0.082875 0.105154 -0.024371 -0.191329 0.088589 0.419062 -0.141749 -0.024007 -0.004341 -0.101717 -0.054330 -0.257705 0.098115 0.287650 -0.165071 0.189858 -0.088668 -0.217111 -0.007799 0.088876 -0.045676 0.083038 0.441565 -0.002360 -0.195812 0.167528 -0.096955 -0.043403 0.321506 0.182256 0.047818 0.034063 -0.180411 0.240127 -0.072961 -0.208087 -0.486423 -0.226432 0.263238 0.205000 0.161565 0.328143 0.131750 0.287229 0.147501 -0.217371 -0.148226 -0.046725 -0.037273 0.018585 0.117540 0.102657 -0.052588 0.321612 -0.037968 -0.180341 -0.085426 0.147672 0.149910 0.000955 0.227769 0.107642 0.055983 -0.063165 0.149924 -0.076539 -0.085631 -0.008720 0.112830 0.142705 -0.135662 0.147442 -0.031054 -0.004684 -0.099056 -0.259859 0.126686 0.114533 -0.065736 0.033748 0.202796 -0.601915 -0.277067 0.141273 0.054651 -0.185343 -0.002227 -0.061165 -0.190989 -0.168862 0.329717 0.038791 -0.078420 0.059947 -0.123315 -0.097825 0.089297 0.103075 -0.061360 0.076438 -0.219909 0.305153 -0.096146 0.083666 0.062047 -0.108929 -0.171389 -0.300858 0.204455 0.235975 -0.006060 0.063697 -0.497128 0.155631 -0.071215 -0.059465 -0.118908 0.109785 -0.284260 -0.088542 -0.217003 0.279215 -0.235057 0.025436 -0.040877 0.054763 -0.012133 0.027080 0.537299 -0.247931 0.318466 -0.220195 0.138260 
pig -0.090889 -0.337016 0.038111 0.288766 -0.192286 -0.001051 0.001541 0.248663 -0.179146 0.436536 -0.261160 0.076804 -0.373364 0.219445 -0.036622 0.009152 -0.143089 0.421319 -0.200149 -0.117078 0.162981 -0.036277 -0.037865 -0.145046 0.113510 -0.127591 -0.260591 0.220288 0.035915 0.141018 0.239247 -0.139005 -0.017770 0.195230 -0.166215 0.013296 0.074584 -0.123181 0.078817 -0.096926 -0.010821 0.171023 0.147053 -0.278455 0.191380 0.068738 -0.264456 0.017455 -0.030969 -0.260922 -0.223575 0.182763 0.207325 -0.148500 -0.118289 -0.135168 -0.195644 0.106463 -0.130621 -0.291975 0.015099 0.246962 0.036951 -0.073253 -0.022226 0.081145 -0.006050 -0.078143 0.097719 -0.026111 -0.174978 0.087207 0.385976 -0.131382 -0.016355 -0.002314 -0.086530 -0.051296 -0.240120 0.087785 0.263883 -0.153835 0.179409 -0.080585 -0.198513 -0.008531 0.079856 -0.041037 0.080475 0.407991 -0.001966 -0.182658 0.158450 -0.090753 -0.039621 0.295505 0.163800 0.046567 0.032938 -0.159933 0.218104 -0.068025 -0.193516 -0.447032 -0.205023 0.243902 0.185750 0.145296 0.300947 0.117403 0.266263 0.136461 -0.204632 -0.131625 -0.047730 -0.031941 0.017405 0.107662 0.088067 -0.046839 0.292278 -0.033209 -0.165255 -0.080409 0.139401 0.138529 -0.003518 0.212465 0.099157 0.047893 -0.058466 0.141553 -0.067959 -0.081798 -0.005623 0.105755 0.129679 -0.120012 0.137539 -0.029593 -0.001172 -0.094288 -0.238957 0.121260 0.105299 -0.058326 0.030410 0.188809 -0.555607 -0.257137 0.128402 0.050043 -0.172922 0.000898 -0.060398 -0.178177 -0.154751 0.301059 0.032486 -0.072810 0.051306 -0.112548 -0.088527 0.078972 0.089051 -0.053288 0.075488 -0.201757 0.284142 -0.091470 0.077193 0.063270 -0.100304 -0.159784 -0.277608 0.191632 0.220320 -0.003477 0.060846 -0.456726 0.142657 -0.063192 -0.056264 -0.113471 0.099594 -0.259225 -0.084335 -0.195922 0.261636 -0.215995 0.026592 -0.033451 0.050225 -0.008484 0.025879 0.497909 -0.225799 0.289420 -0.201628 0.126045 
But -0.100888 -0.370754 0.038005 0.312951 -0.202677 -0.000031 0.002203 0.270067 -0.190875 0.469867 -0.285857 0.086204 -0.401900 0.234956 -0.043727 0.009224 -0.157424 0.455440 -0.212446 -0.124532 0.177371 -0.038607 -0.042817 -0.161580 0.120716 -0.138350 -0.284463 0.242785 0.040622 0.156463 0.260237 -0.143736 -0.015318 0.211843 -0.181938 0.007953 0.081316 -0.131679 0.085373 -0.100335 -0.013933 0.185201 0.155432 -0.301615 0.211720 0.074875 -0.281872 0.014454 -0.031202 -0.283864 -0.240423 0.204259 0.221128 -0.157308 -0.122118 -0.148590 -0.211304 0.116568 -0.143514 -0.319249 0.017236 0.272741 0.040121 -0.081397 -0.028152 0.089382 -0.010955 -0.082293 0.104266 -0.024688 -0.189341 0.090427 0.413420 -0.145142 -0.021924 -0.007457 -0.102146 -0.053320 -0.255697 0.098736 0.288079 -0.166144 0.189956 -0.088265 -0.220636 -0.008777 0.085911 -0.045998 0.085703 0.442900 -0.001164 -0.196309 0.170443 -0.092161 -0.045376 0.319782 0.177203 0.048468 0.034701 -0.177421 0.242406 -0.075185 -0.211607 -0.485581 -0.230025 0.261987 0.202666 0.162084 0.329559 0.132274 0.283244 0.144103 -0.219719 -0.145711 -0.045085 -0.037752 0.019423 0.111683 0.103524 -0.051803 0.321765 -0.035386 -0.177035 -0.084506 0.151395 0.150520 0.003006 0.224740 0.109188 0.056080 -0.067055 0.154618 -0.075490 -0.085479 -0.008757 0.113469 0.136919 -0.137106 0.148134 -0.030267 -0.001952 -0.101567 -0.260397 0.127571 0.110722 -0.059085 0.029825 0.203678 -0.607500 -0.277642 0.138378 0.054882 -0.184191 -0.001720 -0.060562 -0.189050 -0.169334 0.326925 0.036464 -0.077656 0.058526 -0.126682 -0.101335 0.088235 0.102351 -0.061606 0.079606 -0.214119 0.305082 -0.095549 0.081861 0.068846 -0.106454 -0.171101 -0.300213 0.205156 0.237312 -0.000352 0.066024 -0.493613 0.154747 -0.068259 -0.060096 -0.119742 0.114216 -0.282603 -0.085437 -0.214620 0.280894 -0.234237 0.025837 -0.037086 0.058719 -0.007926 0.028109 0.537347 -0.244912 0.313648 -0.218654 0.136853 
were -0.088714 -0.329066 0.035210 0.278234 -0.179960 -0.003580 0.000425 0.240761 -0.170948 0.418623 -0.254209 0.076552 -0.362071 0.211000 -0.033187 0.008061 -0.140878 0.399367 -0.189342 -0.114102 0.161287 -0.034185 -0.033232 -0.142659 0.109822 -0.121833 -0.252469 0.213081 0.036044 0.135941 0.230794 -0.129062 -0.013579 0.189150 -0.160387 0.007534 0.071260 -0.121005 0.078585 -0.091886 -0.012941 0.166146 0.137887 -0.265164 0.184720 0.066438 -0.252670 0.016137 -0.026997 -0.250470 -0.214487 0.176823 0.197402 -0.138708 -0.112311 -0.129177 -0.188339 0.107024 -0.122110 -0.279573 0.019003 0.241377 0.031233 -0.074252 -0.020492 0.076593 -0.007505 -0.073440 0.097529 -0.024423 -0.168199 0.082854 0.368592 -0.130486 -0.021159 -0.004428 -0.090076 -0.051022 -0.227137 0.084163 0.254342 -0.148238 0.167625 -0.078131 -0.193805 -0.006236 0.081211 -0.038536 0.077294 0.392040 -0.002548 -0.173281 0.150485 -0.085852 -0.039572 0.285374 0.156561 0.040818 0.030693 -0.158019 0.212852 -0.063350 -0.185691 -0.427398 -0.202616 0.232100 0.181839 0.143507 0.295851 0.117781 0.251191 0.132127 -0.196423 -0.128956 -0.042254 -0.034356 0.013204 0.101657 0.088927 -0.043898 0.285655 -0.031014 -0.156589 -0.075175 0.131027 0.134554 0.002313 0.198385 0.095021 0.054069 -0.059076 0.137153 -0.070268 -0.076688 -0.007937 0.099493 0.123038 -0.119196 0.131418 -0.027327 -0.003086 -0.086420 -0.226647 0.110043 0.099480 -0.054347 0.027421 0.182042 -0.538460 -0.245303 0.123623 0.046934 -0.168067 -0.002235 -0.053515 -0.167697 -0.149142 0.289014 0.033027 -0.069408 0.046984 -0.110744 -0.088081 0.076385 0.086892 -0.049397 0.068070 -0.190186 0.272913 -0.087582 0.076672 0.062327 -0.093915 -0.155141 -0.265098 0.183338 0.209315 -0.002912 0.061125 -0.438016 0.138757 -0.063592 -0.051403 -0.109427 0.097009 -0.251631 -0.077096 -0.187405 0.249196 -0.211098 0.023920 -0.037191 0.051352 -0.007580 0.024751 0.475991 -0.216327 0.278173 -0.195950 0.123328 
have -0.091672 -0.357206 0.034827 0.298410 -0.199798 0.001725 -0.000991 0.262111 -0.182976 0.449587 -0.272199 0.082071 -0.388297 0.227625 -0.036352 0.008979 -0.148816 0.437197 -0.208062 -0.124494 0.173492 -0.038904 -0.040160 -0.155012 0.116979 -0.131834 -0.277364 0.235158 0.039658 0.147644 0.253239 -0.145149 -0.018127 0.206674 -0.172583 0.008759 0.078092 -0.128108 0.083860 -0.097434 -0.012103 0.181773 0.147746 -0.288901 0.199359 0.071297 -0.271541 0.019828 -0.031660 -0.274271 -0.230167 0.195740 0.213307 -0.153416 -0.120377 -0.143853 -0.204085 0.115705 -0.140670 -0.307451 0.019853 0.263606 0.035069 -0.075366 -0.023916 0.086500 -0.009204 -0.077659 0.101766 -0.026777 -0.183852 0.086471 0.405241 -0.138997 -0.023219 -0.004112 -0.094102 -0.052646 -0.247379 0.096559 0.277118 -0.162963 0.184529 -0.084899 -0.216539 -0.008758 0.083671 -0.045970 0.079780 0.425338 -0.001300 -0.189435 0.164256 -0.091008 -0.046733 0.310305 0.171132 0.043096 0.032600 -0.172450 0.228715 -0.070243 -0.200764 -0.465554 -0.219340 0.249150 0.198635 0.155612 0.319420 0.125078 0.275406 0.143809 -0.209392 -0.138359 -0.045357 -0.033318 0.019358 0.109744 0.098045 -0.045430 0.309924 -0.030714 -0.171705 -0.078376 0.146731 0.147301 0.001288 0.218443 0.103439 0.052430 -0.060641 0.146129 -0.075413 -0.080796 -0.007973 0.106049 0.134942 -0.130923 0.140171 -0.030547 -0.006160 -0.094653 -0.246727 0.122017 0.109074 -0.061015 0.028701 0.196548 -0.586504 -0.270205 0.135658 0.052403 -0.182104 -0.000240 -0.056745 -0.183694 -0.166843 0.315908 0.038630 -0.073678 0.053233 -0.118234 -0.094089 0.083001 0.096218 -0.055106 0.074004 -0.209081 0.295177 -0.094536 0.083546 0.064168 -0.099433 -0.168117 -0.285478 0.201077 0.228638 -0.002073 0.063169 -0.480795 0.147222 -0.069850 -0.059531 -0.113794 0.103442 -0.274576 -0.083873 -0.208170 0.269040 -0.225886 0.028572 -0.037765 0.051451 -0.008875 0.025683 0.520269 -0.237840 0.304313 -0.211940 0.129995 
clothes. -0.092999 -0.347779 0.035216 0.290593 -0.192245 -0.004488 -0.000952 0.258300 -0.179113 0.442355 -0.266362 0.081148 -0.383148 0.222082 -0.039804 0.009999 -0.152077 0.426437 -0.201647 -0.116937 0.171123 -0.040197 -0.034034 -0.146918 0.118296 -0.130872 -0.268119 0.230352 0.036858 0.144026 0.248666 -0.139565 -0.016771 0.203680 -0.169581 0.007324 0.078462 -0.126037 0.080593 -0.097171 -0.012416 0.176626 0.142634 -0.279865 0.198266 0.069484 -0.264100 0.020219 -0.032540 -0.269894 -0.225986 0.189259 0.211833 -0.145738 -0.116139 -0.139715 -0.200391 0.112501 -0.131927 -0.298625 0.018894 0.255700 0.031930 -0.075383 -0.024872 0.084842 -0.009798 -0.074759 0.100590 -0.025033 -0.177424 0.089169 0.393881 -0.136140 -0.027201 -0.009168 -0.094289 -0.054693 -0.245477 0.091774 0.271017 -0.152949 0.180415 -0.078846 -0.209972 -0.009147 0.083557 -0.043383 0.078215 0.412397 0.000159 -0.185793 0.161874 -0.090604 -0.044865 0.297319 0.165748 0.047695 0.029298 -0.167007 0.224084 -0.065657 -0.201209 -0.454516 -0.215175 0.248341 0.191626 0.152372 0.312374 0.127146 0.272799 0.135228 -0.207952 -0.138183 -0.042686 -0.038091 0.018540 0.112640 0.094723 -0.046632 0.303857 -0.032589 -0.167118 -0.075318 0.141143 0.142542 0.000656 0.210978 0.101168 0.055525 -0.060960 0.146030 -0.077584 -0.081773 -0.010245 0.105023 0.129616 -0.126443 0.140436 -0.027264 -0.003224 -0.092824 -0.244798 0.120027 0.103741 -0.058616 0.032132 0.191860 -0.573129 -0.262165 0.130644 0.053704 -0.177279 0.004756 -0.055648 -0.176340 -0.156142 0.307834 0.037634 -0.074317 0.052239 -0.117427 -0.093491 0.084565 0.092783 -0.058530 0.070465 -0.200979 0.285990 -0.091228 0.082362 0.067281 -0.095688 -0.162334 -0.281732 0.196727 0.224423 0.000086 0.060445 -0.470086 0.147768 -0.065132 -0.060402 -0.115191 0.102696 -0.267576 -0.080906 -0.201107 0.265148 -0.221235 0.028816 -0.038124 0.053658 -0.006475 0.033690 0.502189 -0.229901 0.300632 -0.207740 0.133112 
Elise -0.090166 -0.325904 0.030022 0.275998 -0.180368 0.003043 0.004008 0.238917 -0.170584 0.413874 -0.253845 0.075663 -0.357035 0.210463 -0.034021 0.009003 -0.138831 0.401135 -0.190296 -0.110470 0.156909 -0.035276 -0.035179 -0.138064 0.109456 -0.124374 -0.254050 0.217130 0.035196 0.139012 0.229900 -0.133525 -0.014613 0.186594 -0.158720 0.005572 0.073899 -0.119826 0.077959 -0.090150 -0.009382 0.168970 0.138083 -0.263740 0.182646 0.063209 -0.252938 0.017460 -0.025276 -0.252350 -0.209682 0.181596 0.198364 -0.138764 -0.109670 -0.132258 -0.187110 0.101928 -0.128676 -0.283147 0.018572 0.236460 0.033091 -0.073018 -0.021493 0.080338 -0.006326 -0.071542 0.094129 -0.022757 -0.170504 0.085340 0.370838 -0.128050 -0.018374 -0.004627 -0.090844 -0.048713 -0.226451 0.087046 0.255000 -0.147361 0.168470 -0.079309 -0.196310 -0.007187 0.080671 -0.038314 0.075620 0.393698 -0.000322 -0.175728 0.147855 -0.085628 -0.037497 0.281974 0.161646 0.039824 0.030300 -0.156790 0.213570 -0.065850 -0.185395 -0.427724 -0.200801 0.232738 0.180360 0.142379 0.294434 0.116898 0.249827 0.131436 -0.197156 -0.131208 -0.041480 -0.029966 0.015437 0.102769 0.091058 -0.045146 0.281041 -0.031552 -0.158146 -0.074581 0.132835 0.132354 0.005876 0.203149 0.092861 0.048319 -0.059855 0.137347 -0.066107 -0.080312 -0.010704 0.102406 0.120272 -0.117802 0.131486 -0.026124 -0.002405 -0.087829 -0.226046 0.111155 0.098880 -0.052727 0.026022 0.182748 -0.537968 -0.245561 0.123418 0.049532 -0.165182 -0.003481 -0.053519 -0.172519 -0.147669 0.291172 0.035320 -0.071216 0.051444 -0.111260 -0.085756 0.077093 0.089134 -0.049708 0.068414 -0.190082 0.274785 -0.085094 0.073013 0.059678 -0.092267 -0.152623 -0.266070 0.184183 0.213932 -0.003912 0.058280 -0.440629 0.136480 -0.063648 -0.051985 -0.107486 0.097157 -0.250288 -0.082079 -0.189082 0.249552 -0.210696 0.024040 -0.033754 0.047519 -0.010597 0.024686 0.476153 -0.217547 0.279604 -0.195731 0.119189 
can -0.100972 -0.375787 0.039928 0.315676 -0.208464 -0.001203 0.002768 0.277219 -0.193157 0.477718 -0.292394 0.086109 -0.413474 0.241741 -0.043760 0.014112 -0.163907 0.465894 -0.217322 -0.130956 0.181085 -0.040660 -0.040472 -0.159794 0.128388 -0.141306 -0.291242 0.247505 0.042050 0.159478 0.268799 -0.152504 -0.017988 0.220987 -0.183580 0.011825 0.089231 -0.136364 0.091184 -0.099518 -0.007752 0.189987 0.157781 -0.306701 0.214049 0.076117 -0.288971 0.016386 -0.026869 -0.291232 -0.243717 0.203808 0.228359 -0.164355 -0.125800 -0.150143 -0.218214 0.122114 -0.148210 -0.326384 0.014991 0.276897 0.041360 -0.082899 -0.027771 0.089740 -0.012659 -0.084250 0.106688 -0.024401 -0.199777 0.091280 0.426843 -0.150240 -0.024243 -0.003660 -0.099906 -0.055405 -0.264369 0.100423 0.294035 -0.170950 0.196451 -0.093115 -0.227538 -0.010740 0.093112 -0.046921 0.085125 0.449827 -0.002973 -0.199753 0.171059 -0.097694 -0.048900 0.324173 0.187948 0.049514 0.032614 -0.182981 0.242496 -0.075126 -0.211552 -0.495784 -0.233068 0.269608 0.209206 0.165014 0.336798 0.134308 0.289012 0.147349 -0.223026 -0.147729 -0.044283 -0.035623 0.015132 0.115157 0.101147 -0.053526 0.327495 -0.038069 -0.178781 -0.089656 0.154545 0.149417 -0.001782 0.232076 0.111159 0.059017 -0.063427 0.156575 -0.077416 -0.085463 -0.006199 0.114544 0.144915 -0.139014 0.153055 -0.030424 -0.004137 -0.099324 -0.266762 0.126159 0.114316 -0.067684 0.035040 0.212397 -0.613762 -0.282841 0.140848 0.056944 -0.193322 -0.003154 -0.065151 -0.191904 -0.175906 0.339903 0.039632 -0.078653 0.060423 -0.129803 -0.098871 0.088293 0.106989 -0.064871 0.079846 -0.225055 0.312632 -0.100127 0.084863 0.062813 -0.106663 -0.174788 -0.304174 0.208406 0.244096 -0.003765 0.066858 -0.501858 0.162917 -0.070501 -0.058262 -0.124337 0.111807 -0.287853 -0.093633 -0.221286 0.282861 -0.235147 0.025572 -0.038064 0.055000 -0.008838 0.031335 0.543574 -0.253522 0.319819 -0.226719 0.139878 
at -0.104939 -0.392466 0.039452 0.330053 -0.221318 0.000030 0.003551 0.288615 -0.200609 0.498997 -0.304581 0.090543 -0.429170 0.249210 -0.041719 0.009409 -0.169479 0.481808 -0.227966 -0.136119 0.190991 -0.046053 -0.045023 -0.168611 0.129099 -0.150343 -0.306847 0.256652 0.045352 0.165019 0.277508 -0.161346 -0.019014 0.227050 -0.194807 0.007906 0.089253 -0.141203 0.091128 -0.109018 -0.015781 0.199805 0.168697 -0.321205 0.221992 0.077683 -0.300471 0.018338 -0.033145 -0.305078 -0.258489 0.217786 0.236744 -0.172517 -0.134237 -0.155082 -0.227119 0.125149 -0.149919 -0.336735 0.019253 0.288501 0.042183 -0.087702 -0.025606 0.092585 -0.011695 -0.089051 0.112818 -0.028842 -0.205324 0.096591 0.443802 -0.152981 -0.026212 -0.007499 -0.106573 -0.059524 -0.273009 0.102318 0.304757 -0.178541 0.207526 -0.095419 -0.238300 -0.008728 0.093814 -0.050153 0.089716 0.473015 -0.001937 -0.212339 0.176566 -0.102095 -0.047909 0.340805 0.193632 0.052315 0.033366 -0.186706 0.258991 -0.082479 -0.226048 -0.514621 -0.242226 0.277872 0.220297 0.175900 0.355731 0.136179 0.305778 0.159902 -0.238190 -0.157937 -0.052223 -0.039082 0.018732 0.121369 0.108681 -0.051396 0.338885 -0.039424 -0.191251 -0.089025 0.161702 0.155611 0.000620 0.243160 0.114332 0.062395 -0.070073 0.163501 -0.082251 -0.093522 -0.010942 0.124122 0.150037 -0.140856 0.161089 -0.033585 -0.007884 -0.104339 -0.277507 0.134757 0.117614 -0.070112 0.035368 0.220024 -0.644919 -0.296038 0.152102 0.061723 -0.200211 -0.004440 -0.064344 -0.200421 -0.181734 0.354081 0.044028 -0.083042 0.061709 -0.135660 -0.105369 0.092568 0.106742 -0.061717 0.078642 -0.233768 0.327559 -0.103921 0.092251 0.070759 -0.112124 -0.184682 -0.321336 0.222325 0.253531 -0.000631 0.074337 -0.527829 0.162180 -0.073525 -0.063613 -0.129547 0.119830 -0.303817 -0.093739 -0.227459 0.296700 -0.251943 0.027005 -0.042004 0.055521 -0.008594 0.026085 0.573779 -0.266930 0.339655 -0.235689 0.146354 
They -0.101758 -0.388477 0.037854 0.323892 -0.213699 0.001119 0.002437 0.286325 -0.198274 0.495676 -0.296536 0.090198 -0.425604 0.251597 -0.041297 0.008539 -0.164586 0.476598 -0.221536 -0.131846 0.186740 -0.043667 -0.040232 -0.165854 0.129058 -0.145095 -0.301681 0.253422 0.042989 0.165706 0.273748 -0.154650 -0.017397 0.221633 -0.189798 0.010853 0.083991 -0.139764 0.093253 -0.105155 -0.014987 0.194174 0.160210 -0.314079 0.219209 0.079628 -0.298323 0.015894 -0.034922 -0.297972 -0.248854 0.209445 0.234079 -0.166241 -0.131908 -0.153955 -0.222193 0.123215 -0.148371 -0.337241 0.021458 0.284965 0.036892 -0.085928 -0.027504 0.092923 -0.010411 -0.084525 0.113959 -0.026053 -0.203938 0.097044 0.438769 -0.155771 -0.020906 -0.007584 -0.106233 -0.059664 -0.268369 0.102304 0.300524 -0.172261 0.200937 -0.091035 -0.232344 -0.012194 0.095956 -0.047311 0.086729 0.463444 0.002429 -0.207127 0.179320 -0.103184 -0.048715 0.333171 0.189033 0.046539 0.035289 -0.188862 0.250154 -0.077287 -0.220424 -0.511209 -0.235470 0.276261 0.213924 0.166490 0.349425 0.139655 0.299143 0.157231 -0.232285 -0.152666 -0.051890 -0.037648 0.021667 0.122664 0.108547 -0.053953 0.337025 -0.035480 -0.185667 -0.084076 0.159930 0.157468 0.003930 0.242227 0.111292 0.057134 -0.067447 0.160769 -0.079966 -0.089064 -0.010777 0.118521 0.144841 -0.141625 0.155365 -0.033479 -0.004417 -0.101926 -0.268569 0.135425 0.116436 -0.066204 0.035075 0.218506 -0.639785 -0.293835 0.143585 0.058413 -0.197948 -0.000782 -0.062935 -0.199784 -0.175349 0.343937 0.043728 -0.077503 0.057092 -0.131367 -0.104223 0.091853 0.103923 -0.063893 0.084519 -0.226991 0.324290 -0.101284 0.085887 0.067040 -0.108612 -0.183052 -0.311754 0.215373 0.247502 -0.003234 0.069560 -0.520740 0.161338 -0.072166 -0.063410 -0.127423 0.117285 -0.297291 -0.091597 -0.226869 0.292297 -0.247769 0.029800 -0.041714 0.058381 -0.007811 0.029479 0.565273 -0.256835 0.330455 -0.231048 0.140885 
emperor -0.101057 -0.378905 0.038440 0.322761 -0.211802 0.000800 0.001422 0.281535 -0.194583 0.486692 -0.294540 0.089522 -0.420965 0.244885 -0.044543 0.009573 -0.163010 0.466929 -0.222152 -0.129239 0.185930 -0.044637 -0.036524 -0.164704 0.126470 -0.144592 -0.292359 0.251103 0.042927 0.160003 0.268160 -0.153334 -0.018836 0.218046 -0.181880 0.013280 0.084550 -0.139013 0.089448 -0.102845 -0.010638 0.194730 0.157408 -0.307674 0.216142 0.077240 -0.292137 0.018215 -0.032540 -0.292705 -0.249578 0.207682 0.231702 -0.161903 -0.126010 -0.154574 -0.222266 0.124333 -0.145276 -0.329742 0.019686 0.278143 0.036865 -0.082286 -0.028310 0.091999 -0.011718 -0.082581 0.109263 -0.028096 -0.199355 0.096424 0.434563 -0.151015 -0.024906 -0.009378 -0.106635 -0.059574 -0.268402 0.102478 0.299374 -0.169932 0.199662 -0.090606 -0.230894 -0.011235 0.090119 -0.045623 0.085421 0.457218 -0.003605 -0.202245 0.173592 -0.097107 -0.046072 0.329196 0.186807 0.049347 0.030370 -0.185835 0.244876 -0.075166 -0.217697 -0.501644 -0.237050 0.272997 0.213882 0.163949 0.341493 0.137543 0.295676 0.152721 -0.225741 -0.149052 -0.046338 -0.036887 0.018613 0.119204 0.103097 -0.052895 0.331776 -0.032925 -0.186112 -0.088469 0.155122 0.151972 0.002713 0.234351 0.111034 0.061033 -0.066331 0.157576 -0.083386 -0.088769 -0.013128 0.114567 0.140934 -0.139847 0.152340 -0.034093 -0.000963 -0.105392 -0.266992 0.133866 0.116839 -0.062053 0.033351 0.212806 -0.624113 -0.288466 0.146821 0.055059 -0.193745 0.002237 -0.064091 -0.194772 -0.175337 0.338519 0.040004 -0.079070 0.057479 -0.129813 -0.101263 0.091882 0.102261 -0.061808 0.080391 -0.226619 0.314754 -0.102022 0.085341 0.071427 -0.107353 -0.177929 -0.306435 0.210872 0.246815 -0.002452 0.071959 -0.511965 0.160881 -0.073437 -0.065194 -0.126309 0.115949 -0.293078 -0.089162 -0.217450 0.289929 -0.242104 0.031503 -0.040143 0.060430 -0.010550 0.034072 0.552923 -0.256103 0.324468 -0.229421 0.142396 
we -0.105619 -0.399171 0.040939 0.336812 -0.225670 -0.002398 -0.002043 0.297963 -0.204610 0.508351 -0.306097 0.089209 -0.440885 0.259598 -0.044862 0.013805 -0.172148 0.492859 -0.232386 -0.136860 0.195805 -0.046348 -0.042134 -0.172798 0.135714 -0.151775 -0.309874 0.260040 0.042861 0.170406 0.285931 -0.160170 -0.023841 0.230151 -0.194430 0.009484 0.091124 -0.140466 0.094441 -0.109976 -0.011919 0.199452 0.165621 -0.325193 0.225686 0.080654 -0.302634 0.021074 -0.032154 -0.310751 -0.259319 0.218979 0.240774 -0.167787 -0.138706 -0.161079 -0.227311 0.132244 -0.153844 -0.342286 0.019762 0.291359 0.044684 -0.089074 -0.027571 0.092352 -0.013042 -0.092310 0.115730 -0.028143 -0.205597 0.098228 0.450285 -0.158559 -0.028769 -0.004134 -0.108131 -0.058476 -0.275335 0.104091 0.313669 -0.181175 0.206338 -0.098333 -0.237434 -0.012401 0.093255 -0.052244 0.086353 0.477698 0.001737 -0.213790 0.183730 -0.103334 -0.048994 0.349159 0.196831 0.051863 0.033956 -0.192456 0.257241 -0.076886 -0.225854 -0.527976 -0.248282 0.282039 0.219208 0.178551 0.356863 0.143276 0.307784 0.161249 -0.239055 -0.160070 -0.046812 -0.037860 0.016664 0.124100 0.111556 -0.052316 0.346803 -0.036609 -0.190652 -0.091330 0.160045 0.160061 0.002036 0.248526 0.113807 0.063494 -0.065332 0.167839 -0.085858 -0.096086 -0.006761 0.120077 0.151296 -0.141842 0.159246 -0.035500 -0.005914 -0.105911 -0.281550 0.136742 0.123916 -0.067284 0.036789 0.220169 -0.654179 -0.298640 0.150974 0.058042 -0.200703 0.002117 -0.069147 -0.205605 -0.184566 0.355211 0.043102 -0.083934 0.064326 -0.131650 -0.108916 0.093153 0.105338 -0.066926 0.085725 -0.232599 0.335211 -0.106434 0.090489 0.070479 -0.116045 -0.186719 -0.323268 0.224433 0.258447 -0.004088 0.071047 -0.535235 0.165143 -0.074158 -0.066074 -0.127653 0.116553 -0.305698 -0.094323 -0.233516 0.300331 -0.251684 0.033614 -0.039629 0.060380 -0.008921 0.033376 0.582847 -0.264504 0.341467 -0.242317 0.146122 
went -0.092298 -0.337349 0.034760 0.289413 -0.192453 0.002983 0.003468 0.248034 -0.176814 0.431882 -0.260598 0.079213 -0.372136 0.219730 -0.039253 0.007548 -0.144458 0.419001 -0.197624 -0.117775 0.166191 -0.039703 -0.034994 -0.145786 0.112804 -0.127132 -0.262674 0.223622 0.032832 0.142902 0.239057 -0.136283 -0.013951 0.192410 -0.166680 0.007159 0.073178 -0.124129 0.079128 -0.091558 -0.007659 0.173637 0.140449 -0.276759 0.189450 0.065861 -0.260754 0.015810 -0.029561 -0.262693 -0.220972 0.183940 0.202302 -0.146230 -0.111685 -0.136394 -0.197340 0.105821 -0.132874 -0.293834 0.014873 0.251586 0.036237 -0.075924 -0.024912 0.077558 -0.008618 -0.077493 0.097147 -0.023618 -0.176193 0.088143 0.385997 -0.132167 -0.021168 -0.007423 -0.088461 -0.051281 -0.237477 0.091137 0.263519 -0.152355 0.171901 -0.078722 -0.201365 -0.007929 0.083800 -0.039787 0.081579 0.406242 -0.000141 -0.180558 0.154028 -0.087654 -0.039112 0.296212 0.167442 0.046168 0.028108 -0.164053 0.220444 -0.068233 -0.194337 -0.444599 -0.208543 0.239776 0.185744 0.147103 0.303948 0.120894 0.261804 0.136661 -0.204995 -0.132088 -0.044264 -0.031792 0.015462 0.105240 0.092418 -0.048555 0.297071 -0.031669 -0.160743 -0.077468 0.138139 0.135250 0.002057 0.211983 0.100383 0.050372 -0.058332 0.142187 -0.070566 -0.081499 -0.007606 0.103187 0.127102 -0.120993 0.134968 -0.032498 -0.005434 -0.090789 -0.235107 0.117261 0.104518 -0.055457 0.031635 0.190628 -0.557306 -0.252514 0.127659 0.047646 -0.171063 -0.001618 -0.057822 -0.171305 -0.154258 0.300658 0.035952 -0.075226 0.049840 -0.111459 -0.088799 0.081441 0.088964 -0.053714 0.071700 -0.201939 0.282728 -0.091840 0.077504 0.064288 -0.100061 -0.160207 -0.271914 0.191812 0.220480 -0.001910 0.059351 -0.456374 0.140017 -0.064359 -0.057838 -0.112137 0.105201 -0.260718 -0.080633 -0.197569 0.255314 -0.213480 0.026159 -0.034828 0.050614 -0.010375 0.024597 0.494972 -0.227551 0.286512 -0.199854 0.124501 
into -0.088130 -0.325610 0.035287 0.270427 -0.180684 0.004036 0.003388 0.240516 -0.166227 0.413177 -0.254073 0.073760 -0.356173 0.213368 -0.036498 0.009202 -0.138240 0.405248 -0.190545 -0.113112 0.159061 -0.036995 -0.033191 -0.141088 0.114867 -0.125162 -0.251751 0.211873 0.037100 0.138875 0.235746 -0.134558 -0.013238 0.189757 -0.157108 0.008544 0.077136 -0.120432 0.080054 -0.087770 -0.008075 0.166365 0.136608 -0.269040 0.187387 0.066533 -0.251104 0.017396 -0.027312 -0.254825 -0.210680 0.179435 0.192821 -0.137794 -0.107865 -0.130118 -0.184421 0.101436 -0.127778 -0.280523 0.013746 0.239752 0.035617 -0.077108 -0.020330 0.078864 -0.010567 -0.073670 0.095385 -0.023223 -0.172022 0.082373 0.370138 -0.126961 -0.019615 -0.002534 -0.083998 -0.046886 -0.225407 0.087416 0.251380 -0.146056 0.169092 -0.077331 -0.196237 -0.007079 0.078389 -0.037031 0.074395 0.393836 -0.000568 -0.173497 0.148964 -0.088661 -0.038410 0.279853 0.160762 0.043939 0.028722 -0.158361 0.212362 -0.067262 -0.184110 -0.429982 -0.200173 0.230238 0.181243 0.141732 0.290834 0.118891 0.252558 0.127117 -0.193099 -0.129002 -0.039154 -0.030793 0.012030 0.100788 0.088633 -0.046312 0.285817 -0.033440 -0.157525 -0.075282 0.133042 0.133362 -0.001676 0.207056 0.092989 0.047865 -0.058041 0.131668 -0.069032 -0.077262 -0.006640 0.101586 0.123270 -0.116226 0.129561 -0.029041 -0.002424 -0.089255 -0.231917 0.114049 0.101208 -0.057176 0.029299 0.185129 -0.534096 -0.246516 0.119456 0.050103 -0.169124 -0.002911 -0.054486 -0.169069 -0.154470 0.292259 0.037260 -0.066696 0.052262 -0.108102 -0.087740 0.080475 0.089612 -0.059820 0.071725 -0.193447 0.270130 -0.087530 0.077465 0.056449 -0.095349 -0.152558 -0.267226 0.184178 0.210762 -0.006578 0.056699 -0.437890 0.139953 -0.062179 -0.051984 -0.106882 0.097953 -0.250333 -0.078201 -0.195336 0.247914 -0.206704 0.021595 -0.037170 0.049965 -0.007018 0.025853 0.475781 -0.218431 0.279897 -0.193278 0.117397 
You -0.083908 -0.319250 0.035020 0.266657 -0.177368 0.001250 0.003480 0.233897 -0.162420 0.405405 -0.245538 0.075356 -0.350040 0.205259 -0.034829 0.010673 -0.135497 0.390694 -0.187457 -0.109779 0.156753 -0.033243 -0.032753 -0.136637 0.108575 -0.118648 -0.243334 0.206910 0.036186 0.137231 0.225646 -0.128727 -0.017807 0.183339 -0.154670 0.005096 0.074082 -0.114414 0.076203 -0.083982 -0.010732 0.163675 0.132703 -0.256525 0.176972 0.065445 -0.245156 0.016976 -0.023618 -0.246340 -0.209664 0.177792 0.191740 -0.135686 -0.106801 -0.127553 -0.183204 0.101405 -0.121561 -0.271750 0.013890 0.236922 0.033585 -0.072380 -0.021424 0.076323 -0.010962 -0.071350 0.090906 -0.021783 -0.165897 0.081283 0.361687 -0.122898 -0.020052 -0.005766 -0.087758 -0.046129 -0.223375 0.081545 0.246600 -0.141747 0.165317 -0.074429 -0.191536 -0.008091 0.075382 -0.038053 0.068598 0.383723 -0.001442 -0.168622 0.145193 -0.080028 -0.041448 0.276983 0.157036 0.041902 0.030886 -0.155069 0.207143 -0.066430 -0.178220 -0.418531 -0.195272 0.226911 0.173430 0.141833 0.283243 0.113301 0.245884 0.128529 -0.190694 -0.128296 -0.038966 -0.033476 0.014528 0.100079 0.086516 -0.046972 0.276870 -0.032108 -0.154234 -0.073159 0.127253 0.127784 -0.000903 0.198104 0.090030 0.047426 -0.057081 0.133634 -0.066338 -0.074917 -0.006513 0.100286 0.118718 -0.113678 0.128070 -0.025732 -0.004116 -0.087910 -0.221573 0.110613 0.098999 -0.055734 0.028064 0.178218 -0.521501 -0.241178 0.123567 0.049671 -0.161493 -0.002583 -0.051921 -0.162574 -0.145292 0.283174 0.032775 -0.067359 0.049106 -0.103086 -0.084598 0.074028 0.089225 -0.050851 0.064571 -0.185732 0.262324 -0.086368 0.072922 0.054904 -0.093266 -0.148655 -0.259702 0.175809 0.205746 -0.003746 0.060893 -0.425779 0.135151 -0.060834 -0.053550 -0.100594 0.094204 -0.246571 -0.078290 -0.184388 0.239594 -0.202537 0.024399 -0.036079 0.047631 -0.009639 0.021814 0.463451 -0.213008 0.273679 -0.192471 0.116518 
but -0.086904 -0.328918 0.036378 0.278274 -0.184272 0.001859 0.000703 0.242925 -0.171097 0.415810 -0.252044 0.077458 -0.360182 0.210666 -0.033912 0.009071 -0.141786 0.406489 -0.187580 -0.115506 0.159486 -0.034049 -0.036216 -0.139765 0.113832 -0.123563 -0.255929 0.217147 0.033340 0.140925 0.235442 -0.129888 -0.013473 0.190109 -0.158495 0.008756 0.072744 -0.118059 0.078243 -0.090193 -0.008164 0.168130 0.137715 -0.268450 0.182731 0.063926 -0.253705 0.013499 -0.028481 -0.253611 -0.216965 0.181124 0.201034 -0.140699 -0.108992 -0.128960 -0.189252 0.104839 -0.122555 -0.283162 0.012653 0.241404 0.035465 -0.073317 -0.020137 0.079630 -0.007167 -0.069956 0.097783 -0.020813 -0.172990 0.082539 0.372562 -0.130467 -0.020593 -0.010406 -0.089215 -0.048673 -0.232897 0.085897 0.253455 -0.146445 0.167104 -0.079784 -0.195504 -0.007850 0.080707 -0.039541 0.074812 0.394022 -0.001983 -0.179547 0.150928 -0.083171 -0.041322 0.287013 0.162067 0.043834 0.030436 -0.158754 0.211941 -0.067191 -0.183966 -0.432661 -0.204225 0.232989 0.185903 0.142278 0.296407 0.115090 0.253420 0.127988 -0.199719 -0.132928 -0.043290 -0.032676 0.015593 0.100493 0.088948 -0.044107 0.284494 -0.033706 -0.161198 -0.072950 0.135973 0.129898 0.000939 0.202436 0.097067 0.054683 -0.058593 0.135500 -0.068938 -0.081224 -0.009730 0.099467 0.123022 -0.120322 0.134433 -0.028520 -0.005761 -0.090421 -0.230252 0.110368 0.097571 -0.058693 0.029866 0.181223 -0.539889 -0.247957 0.125204 0.051220 -0.169829 -0.000794 -0.055801 -0.172975 -0.148315 0.293944 0.036093 -0.071911 0.046608 -0.111074 -0.085379 0.077615 0.087804 -0.054269 0.067635 -0.196273 0.270874 -0.089072 0.076443 0.058798 -0.094505 -0.154054 -0.268286 0.181402 0.212883 -0.000671 0.059167 -0.445337 0.140449 -0.061756 -0.055535 -0.110090 0.097378 -0.250417 -0.080726 -0.192389 0.251341 -0.211152 0.024303 -0.036924 0.050120 -0.006238 0.028066 0.481122 -0.218855 0.283183 -0.195971 0.123042 
